<?xml version="1.0"?>
<opencv_storage>
<cascade>
  <stageType>BOOST</stageType>
  <featureType>HOG</featureType>
  <height>64</height>
  <width>112</width>
  <stageParams>
    <boostType>GAB</boostType>
    <minHitRate>9.9500000476837158e-01</minHitRate>
    <maxFalseAlarm>6.6699999570846558e-01</maxFalseAlarm>
    <weightTrimRate>9.4999998807907104e-01</weightTrimRate>
    <maxDepth>1</maxDepth>
    <maxWeakCount>100</maxWeakCount></stageParams>
  <featureParams>
    <maxCatCount>0</maxCatCount>
    <featSize>36</featSize></featureParams>
  <stageNum>5</stageNum>
  <stages>
    <!-- stage 0 -->
    <_>
      <maxWeakCount>7</maxWeakCount>
      <stageThreshold>-1.4189625978469849e+00</stageThreshold>
      <weakClassifiers>
        <_>
          <internalNodes>
            0 -1 37 3.8542024791240692e-02</internalNodes>
          <leafValues>
            -6.2829303741455078e-01 7.7886760234832764e-01</leafValues></_>
        <_>
          <internalNodes>
            0 -1 22 6.1039868742227554e-02</internalNodes>
          <leafValues>
            -4.8327431082725525e-01 6.3580250740051270e-01</leafValues></_>
        <_>
          <internalNodes>
            0 -1 20 1.1310354806482792e-02</internalNodes>
          <leafValues>
            -6.6127371788024902e-01 2.7920895814895630e-01</leafValues></_>
        <_>
          <internalNodes>
            0 -1 3 1.5698675066232681e-02</internalNodes>
          <leafValues>
            3.8142400979995728e-01 -5.3260880708694458e-01</leafValues></_>
        <_>
          <internalNodes>
            0 -1 15 7.1315942332148552e-03</internalNodes>
          <leafValues>
            -8.4344178438186646e-01 1.5850715339183807e-01</leafValues></_>
        <_>
          <internalNodes>
            0 -1 26 1.0069025680422783e-02</internalNodes>
          <leafValues>
            4.0594261884689331e-01 -4.0956163406372070e-01</leafValues></_>
        <_>
          <internalNodes>
            0 -1 27 3.4615721553564072e-02</internalNodes>
          <leafValues>
            -3.7143099308013916e-01 3.2203757762908936e-01</leafValues></_></weakClassifiers></_>
    <!-- stage 1 -->
    <_>
      <maxWeakCount>8</maxWeakCount>
      <stageThreshold>-1.3358025550842285e+00</stageThreshold>
      <weakClassifiers>
        <_>
          <internalNodes>
            0 -1 40 4.9263209104537964e-02</internalNodes>
          <leafValues>
            -5.5628865957260132e-01 6.8537104129791260e-01</leafValues></_>
        <_>
          <internalNodes>
            0 -1 24 4.9252457916736603e-02</internalNodes>
          <leafValues>
            -5.0204581022262573e-01 5.2574622631072998e-01</leafValues></_>
        <_>
          <internalNodes>
            0 -1 6 1.3851856812834740e-02</internalNodes>
          <leafValues>
            3.5836276412010193e-01 -4.6051794290542603e-01</leafValues></_>
        <_>
          <internalNodes>
            0 -1 16 2.2660955786705017e-02</internalNodes>
          <leafValues>
            -3.8313928246498108e-01 4.3840947747230530e-01</leafValues></_>
        <_>
          <internalNodes>
            0 -1 19 1.8676135689020157e-02</internalNodes>
          <leafValues>
            -4.4675165414810181e-01 3.2287868857383728e-01</leafValues></_>
        <_>
          <internalNodes>
            0 -1 5 6.6845738328993320e-03</internalNodes>
          <leafValues>
            5.4564332962036133e-01 -2.7398818731307983e-01</leafValues></_>
        <_>
          <internalNodes>
            0 -1 28 8.1517398357391357e-03</internalNodes>
          <leafValues>
            -7.3791378736495972e-01 1.2277061492204666e-01</leafValues></_>
        <_>
          <internalNodes>
            0 -1 38 5.0813581794500351e-02</internalNodes>
          <leafValues>
            -3.5717338323593140e-01 3.4527757763862610e-01</leafValues></_></weakClassifiers></_>
    <!-- stage 2 -->
    <_>
      <maxWeakCount>8</maxWeakCount>
      <stageThreshold>-1.3151764869689941e+00</stageThreshold>
      <weakClassifiers>
        <_>
          <internalNodes>
            0 -1 29 4.4002223759889603e-02</internalNodes>
          <leafValues>
            -3.9596804976463318e-01 6.6089361906051636e-01</leafValues></_>
        <_>
          <internalNodes>
            0 -1 39 5.0838936120271683e-02</internalNodes>
          <leafValues>
            -5.6912308931350708e-01 3.6159208416938782e-01</leafValues></_>
        <_>
          <internalNodes>
            0 -1 11 1.4130115509033203e-02</internalNodes>
          <leafValues>
            -6.5267395973205566e-01 2.5805473327636719e-01</leafValues></_>
        <_>
          <internalNodes>
            0 -1 9 8.0700553953647614e-03</internalNodes>
          <leafValues>
            3.4587159752845764e-01 -4.2159068584442139e-01</leafValues></_>
        <_>
          <internalNodes>
            0 -1 13 1.6635105013847351e-02</internalNodes>
          <leafValues>
            -4.7169899940490723e-01 3.2754302024841309e-01</leafValues></_>
        <_>
          <internalNodes>
            0 -1 25 1.1688681319355965e-02</internalNodes>
          <leafValues>
            3.6246404051780701e-01 -3.5047462582588196e-01</leafValues></_>
        <_>
          <internalNodes>
            0 -1 30 2.0139951258897781e-02</internalNodes>
          <leafValues>
            -3.8832634687423706e-01 3.1587252020835876e-01</leafValues></_>
        <_>
          <internalNodes>
            0 -1 35 3.0255457386374474e-02</internalNodes>
          <leafValues>
            -5.9494328498840332e-01 1.6487894952297211e-01</leafValues></_></weakClassifiers></_>
    <!-- stage 3 -->
    <_>
      <maxWeakCount>11</maxWeakCount>
      <stageThreshold>-1.1132200956344604e+00</stageThreshold>
      <weakClassifiers>
        <_>
          <internalNodes>
            0 -1 21 2.1770808845758438e-02</internalNodes>
          <leafValues>
            5.5708891153335571e-01 -4.2825728654861450e-01</leafValues></_>
        <_>
          <internalNodes>
            0 -1 18 1.3758381828665733e-02</internalNodes>
          <leafValues>
            -5.5070495605468750e-01 3.0713924765586853e-01</leafValues></_>
        <_>
          <internalNodes>
            0 -1 22 6.7741140723228455e-02</internalNodes>
          <leafValues>
            -5.0137478113174438e-01 3.5470926761627197e-01</leafValues></_>
        <_>
          <internalNodes>
            0 -1 32 5.7295676320791245e-02</internalNodes>
          <leafValues>
            -3.7181672453880310e-01 3.4026461839675903e-01</leafValues></_>
        <_>
          <internalNodes>
            0 -1 15 1.4567363075911999e-02</internalNodes>
          <leafValues>
            -5.0284433364868164e-01 2.6237311959266663e-01</leafValues></_>
        <_>
          <internalNodes>
            0 -1 7 4.7585748136043549e-02</internalNodes>
          <leafValues>
            -3.5211426019668579e-01 3.4744799137115479e-01</leafValues></_>
        <_>
          <internalNodes>
            0 -1 31 1.5343433246016502e-02</internalNodes>
          <leafValues>
            -6.3185995817184448e-01 1.3630864024162292e-01</leafValues></_>
        <_>
          <internalNodes>
            0 -1 6 6.1146793887019157e-03</internalNodes>
          <leafValues>
            3.8868883252143860e-01 -2.7255696058273315e-01</leafValues></_>
        <_>
          <internalNodes>
            0 -1 13 3.0237779021263123e-02</internalNodes>
          <leafValues>
            -2.3107782006263733e-01 4.8151698708534241e-01</leafValues></_>
        <_>
          <internalNodes>
            0 -1 33 2.1135000512003899e-02</internalNodes>
          <leafValues>
            1.7888619005680084e-01 -4.4490092992782593e-01</leafValues></_>
        <_>
          <internalNodes>
            0 -1 1 7.0313945412635803e-02</internalNodes>
          <leafValues>
            1.6103060543537140e-01 -4.8148345947265625e-01</leafValues></_></weakClassifiers></_>
    <!-- stage 4 -->
    <_>
      <maxWeakCount>14</maxWeakCount>
      <stageThreshold>-1.4883332252502441e+00</stageThreshold>
      <weakClassifiers>
        <_>
          <internalNodes>
            0 -1 41 1.2506854720413685e-02</internalNodes>
          <leafValues>
            6.0136187076568604e-01 -3.0150958895683289e-01</leafValues></_>
        <_>
          <internalNodes>
            0 -1 4 9.4355735927820206e-03</internalNodes>
          <leafValues>
            3.7442952394485474e-01 -4.4116744399070740e-01</leafValues></_>
        <_>
          <internalNodes>
            0 -1 23 5.9098120778799057e-02</internalNodes>
          <leafValues>
            -3.8750869035720825e-01 3.1177374720573425e-01</leafValues></_>
        <_>
          <internalNodes>
            0 -1 10 1.0621036402881145e-02</internalNodes>
          <leafValues>
            -6.9308662414550781e-01 1.8177914619445801e-01</leafValues></_>
        <_>
          <internalNodes>
            0 -1 8 1.3791805133223534e-02</internalNodes>
          <leafValues>
            2.0221295952796936e-01 -4.8644313216209412e-01</leafValues></_>
        <_>
          <internalNodes>
            0 -1 14 1.4880027621984482e-02</internalNodes>
          <leafValues>
            -5.6837272644042969e-01 1.9389106333255768e-01</leafValues></_>
        <_>
          <internalNodes>
            0 -1 36 4.3992191553115845e-02</internalNodes>
          <leafValues>
            -4.2809164524078369e-01 2.0037560164928436e-01</leafValues></_>
        <_>
          <internalNodes>
            0 -1 2 4.5031040906906128e-02</internalNodes>
          <leafValues>
            2.3188696801662445e-01 -4.0249344706535339e-01</leafValues></_>
        <_>
          <internalNodes>
            0 -1 12 2.3137640208005905e-02</internalNodes>
          <leafValues>
            -3.0158621072769165e-01 2.7960842847824097e-01</leafValues></_>
        <_>
          <internalNodes>
            0 -1 34 4.0075115859508514e-02</internalNodes>
          <leafValues>
            -4.5306485891342163e-01 1.6618485748767853e-01</leafValues></_>
        <_>
          <internalNodes>
            0 -1 30 1.5428720042109489e-02</internalNodes>
          <leafValues>
            -4.3007832765579224e-01 1.8184097111225128e-01</leafValues></_>
        <_>
          <internalNodes>
            0 -1 17 1.8480209633708000e-02</internalNodes>
          <leafValues>
            1.8177595734596252e-01 -4.2436200380325317e-01</leafValues></_>
        <_>
          <internalNodes>
            0 -1 0 2.1600786596536636e-02</internalNodes>
          <leafValues>
            -2.0004537701606750e-01 3.3431190252304077e-01</leafValues></_>
        <_>
          <internalNodes>
            0 -1 5 7.5577232055366039e-03</internalNodes>
          <leafValues>
            3.1551480293273926e-01 -2.2417220473289490e-01</leafValues></_></weakClassifiers></_></stages>
  <features>
    <_>
      <rect>
        0 40 8 8 7</rect></_>
    <_>
      <rect>
        0 12 8 16 4</rect></_>
    <_>
      <rect>
        96 16 8 16 31</rect></_>
    <_>
      <rect>
        12 0 16 8 17</rect></_>
    <_>
      <rect>
        12 4 16 8 17</rect></_>
    <_>
      <rect>
        44 48 16 8 26</rect></_>
    <_>
      <rect>
        64 0 16 8 8</rect></_>
    <_>
      <rect>
        64 48 16 8 3</rect></_>
    <_>
      <rect>
        68 4 16 8 8</rect></_>
    <_>
      <rect>
        72 4 16 8 8</rect></_>
    <_>
      <rect>
        0 8 16 16 8</rect></_>
    <_>
      <rect>
        0 12 16 16 8</rect></_>
    <_>
      <rect>
        80 0 16 16 15</rect></_>
    <_>
      <rect>
        80 4 16 16 15</rect></_>
    <_>
      <rect>
        80 12 16 16 17</rect></_>
    <_>
      <rect>
        0 0 16 32 0</rect></_>
    <_>
      <rect>
        0 0 16 32 1</rect></_>
    <_>
      <rect>
        36 0 16 32 0</rect></_>
    <_>
      <rect>
        80 0 16 32 9</rect></_>
    <_>
      <rect>
        80 0 16 32 15</rect></_>
    <_>
      <rect>
        80 0 16 32 16</rect></_>
    <_>
      <rect>
        0 0 32 16 17</rect></_>
    <_>
      <rect>
        0 28 32 16 13</rect></_>
    <_>
      <rect>
        12 32 32 16 12</rect></_>
    <_>
      <rect>
        16 28 32 16 12</rect></_>
    <_>
      <rect>
        16 32 32 16 26</rect></_>
    <_>
      <rect>
        32 32 32 16 27</rect></_>
    <_>
      <rect>
        44 28 32 16 21</rect></_>
    <_>
      <rect>
        48 12 32 16 9</rect></_>
    <_>
      <rect>
        48 28 32 16 3</rect></_>
    <_>
      <rect>
        0 0 24 24 1</rect></_>
    <_>
      <rect>
        0 12 24 24 5</rect></_>
    <_>
      <rect>
        44 0 24 24 3</rect></_>
    <_>
      <rect>
        0 0 48 24 20</rect></_>
    <_>
      <rect>
        8 12 48 24 12</rect></_>
    <_>
      <rect>
        12 4 48 24 12</rect></_>
    <_>
      <rect>
        12 4 48 24 22</rect></_>
    <_>
      <rect>
        16 0 32 32 12</rect></_>
    <_>
      <rect>
        16 0 32 32 22</rect></_>
    <_>
      <rect>
        20 0 32 32 4</rect></_>
    <_>
      <rect>
        36 0 32 32 4</rect></_>
    <_>
      <rect>
        36 0 32 32 34</rect></_></features></cascade>
</opencv_storage>
