<?xml version="1.0"?>
<opencv_storage>
<cascade>
  <stageType>BOOST</stageType>
  <featureType>HOG</featureType>
  <height>64</height>
  <width>112</width>
  <stageParams>
    <boostType>GAB</boostType>
    <minHitRate>9.9500000476837158e-01</minHitRate>
    <maxFalseAlarm>6.6699999570846558e-01</maxFalseAlarm>
    <weightTrimRate>9.4999998807907104e-01</weightTrimRate>
    <maxDepth>1</maxDepth>
    <maxWeakCount>100</maxWeakCount></stageParams>
  <featureParams>
    <maxCatCount>0</maxCatCount>
    <featSize>36</featSize></featureParams>
  <stageNum>15</stageNum>
  <stages>
    <!-- stage 0 -->
    <_>
      <maxWeakCount>7</maxWeakCount>
      <stageThreshold>-1.4189625978469849e+00</stageThreshold>
      <weakClassifiers>
        <_>
          <internalNodes>
            0 -1 272 3.8542024791240692e-02</internalNodes>
          <leafValues>
            -6.2829303741455078e-01 7.7886760234832764e-01</leafValues></_>
        <_>
          <internalNodes>
            0 -1 160 6.1039868742227554e-02</internalNodes>
          <leafValues>
            -4.8327431082725525e-01 6.3580250740051270e-01</leafValues></_>
        <_>
          <internalNodes>
            0 -1 153 1.1310354806482792e-02</internalNodes>
          <leafValues>
            -6.6127371788024902e-01 2.7920895814895630e-01</leafValues></_>
        <_>
          <internalNodes>
            0 -1 67 1.5698675066232681e-02</internalNodes>
          <leafValues>
            3.8142400979995728e-01 -5.3260880708694458e-01</leafValues></_>
        <_>
          <internalNodes>
            0 -1 142 7.1315942332148552e-03</internalNodes>
          <leafValues>
            -8.4344178438186646e-01 1.5850715339183807e-01</leafValues></_>
        <_>
          <internalNodes>
            0 -1 184 1.0069025680422783e-02</internalNodes>
          <leafValues>
            4.0594261884689331e-01 -4.0956163406372070e-01</leafValues></_>
        <_>
          <internalNodes>
            0 -1 194 3.4615721553564072e-02</internalNodes>
          <leafValues>
            -3.7143099308013916e-01 3.2203757762908936e-01</leafValues></_></weakClassifiers></_>
    <!-- stage 1 -->
    <_>
      <maxWeakCount>8</maxWeakCount>
      <stageThreshold>-1.3358025550842285e+00</stageThreshold>
      <weakClassifiers>
        <_>
          <internalNodes>
            0 -1 279 4.9263209104537964e-02</internalNodes>
          <leafValues>
            -5.5628865957260132e-01 6.8537104129791260e-01</leafValues></_>
        <_>
          <internalNodes>
            0 -1 175 4.9252457916736603e-02</internalNodes>
          <leafValues>
            -5.0204581022262573e-01 5.2574622631072998e-01</leafValues></_>
        <_>
          <internalNodes>
            0 -1 99 1.3851856812834740e-02</internalNodes>
          <leafValues>
            3.5836276412010193e-01 -4.6051794290542603e-01</leafValues></_>
        <_>
          <internalNodes>
            0 -1 143 2.2660955786705017e-02</internalNodes>
          <leafValues>
            -3.8313928246498108e-01 4.3840947747230530e-01</leafValues></_>
        <_>
          <internalNodes>
            0 -1 152 1.8676135689020157e-02</internalNodes>
          <leafValues>
            -4.4675165414810181e-01 3.2287868857383728e-01</leafValues></_>
        <_>
          <internalNodes>
            0 -1 89 6.6845738328993320e-03</internalNodes>
          <leafValues>
            5.4564332962036133e-01 -2.7398818731307983e-01</leafValues></_>
        <_>
          <internalNodes>
            0 -1 197 8.1517398357391357e-03</internalNodes>
          <leafValues>
            -7.3791378736495972e-01 1.2277061492204666e-01</leafValues></_>
        <_>
          <internalNodes>
            0 -1 273 5.0813581794500351e-02</internalNodes>
          <leafValues>
            -3.5717338323593140e-01 3.4527757763862610e-01</leafValues></_></weakClassifiers></_>
    <!-- stage 2 -->
    <_>
      <maxWeakCount>8</maxWeakCount>
      <stageThreshold>-1.3151764869689941e+00</stageThreshold>
      <weakClassifiers>
        <_>
          <internalNodes>
            0 -1 198 4.4002223759889603e-02</internalNodes>
          <leafValues>
            -3.9596804976463318e-01 6.6089361906051636e-01</leafValues></_>
        <_>
          <internalNodes>
            0 -1 274 5.0838936120271683e-02</internalNodes>
          <leafValues>
            -5.6912308931350708e-01 3.6159208416938782e-01</leafValues></_>
        <_>
          <internalNodes>
            0 -1 112 1.4130115509033203e-02</internalNodes>
          <leafValues>
            -6.5267395973205566e-01 2.5805473327636719e-01</leafValues></_>
        <_>
          <internalNodes>
            0 -1 103 8.0700553953647614e-03</internalNodes>
          <leafValues>
            3.4587159752845764e-01 -4.2159068584442139e-01</leafValues></_>
        <_>
          <internalNodes>
            0 -1 135 1.6635105013847351e-02</internalNodes>
          <leafValues>
            -4.7169899940490723e-01 3.2754302024841309e-01</leafValues></_>
        <_>
          <internalNodes>
            0 -1 177 1.1688681319355965e-02</internalNodes>
          <leafValues>
            3.6246404051780701e-01 -3.5047462582588196e-01</leafValues></_>
        <_>
          <internalNodes>
            0 -1 200 2.0139951258897781e-02</internalNodes>
          <leafValues>
            -3.8832634687423706e-01 3.1587252020835876e-01</leafValues></_>
        <_>
          <internalNodes>
            0 -1 255 3.0255457386374474e-02</internalNodes>
          <leafValues>
            -5.9494328498840332e-01 1.6487894952297211e-01</leafValues></_></weakClassifiers></_>
    <!-- stage 3 -->
    <_>
      <maxWeakCount>11</maxWeakCount>
      <stageThreshold>-1.1132200956344604e+00</stageThreshold>
      <weakClassifiers>
        <_>
          <internalNodes>
            0 -1 156 2.1770808845758438e-02</internalNodes>
          <leafValues>
            5.5708891153335571e-01 -4.2825728654861450e-01</leafValues></_>
        <_>
          <internalNodes>
            0 -1 151 1.3758381828665733e-02</internalNodes>
          <leafValues>
            -5.5070495605468750e-01 3.0713924765586853e-01</leafValues></_>
        <_>
          <internalNodes>
            0 -1 160 6.7741140723228455e-02</internalNodes>
          <leafValues>
            -5.0137478113174438e-01 3.5470926761627197e-01</leafValues></_>
        <_>
          <internalNodes>
            0 -1 219 5.7295676320791245e-02</internalNodes>
          <leafValues>
            -3.7181672453880310e-01 3.4026461839675903e-01</leafValues></_>
        <_>
          <internalNodes>
            0 -1 142 1.4567363075911999e-02</internalNodes>
          <leafValues>
            -5.0284433364868164e-01 2.6237311959266663e-01</leafValues></_>
        <_>
          <internalNodes>
            0 -1 100 4.7585748136043549e-02</internalNodes>
          <leafValues>
            -3.5211426019668579e-01 3.4744799137115479e-01</leafValues></_>
        <_>
          <internalNodes>
            0 -1 203 1.5343433246016502e-02</internalNodes>
          <leafValues>
            -6.3185995817184448e-01 1.3630864024162292e-01</leafValues></_>
        <_>
          <internalNodes>
            0 -1 99 6.1146793887019157e-03</internalNodes>
          <leafValues>
            3.8868883252143860e-01 -2.7255696058273315e-01</leafValues></_>
        <_>
          <internalNodes>
            0 -1 135 3.0237779021263123e-02</internalNodes>
          <leafValues>
            -2.3107782006263733e-01 4.8151698708534241e-01</leafValues></_>
        <_>
          <internalNodes>
            0 -1 243 2.1135000512003899e-02</internalNodes>
          <leafValues>
            1.7888619005680084e-01 -4.4490092992782593e-01</leafValues></_>
        <_>
          <internalNodes>
            0 -1 30 7.0313945412635803e-02</internalNodes>
          <leafValues>
            1.6103060543537140e-01 -4.8148345947265625e-01</leafValues></_></weakClassifiers></_>
    <!-- stage 4 -->
    <_>
      <maxWeakCount>14</maxWeakCount>
      <stageThreshold>-1.4883332252502441e+00</stageThreshold>
      <weakClassifiers>
        <_>
          <internalNodes>
            0 -1 281 1.2506854720413685e-02</internalNodes>
          <leafValues>
            6.0136187076568604e-01 -3.0150958895683289e-01</leafValues></_>
        <_>
          <internalNodes>
            0 -1 70 9.4355735927820206e-03</internalNodes>
          <leafValues>
            3.7442952394485474e-01 -4.4116744399070740e-01</leafValues></_>
        <_>
          <internalNodes>
            0 -1 171 5.9098120778799057e-02</internalNodes>
          <leafValues>
            -3.8750869035720825e-01 3.1177374720573425e-01</leafValues></_>
        <_>
          <internalNodes>
            0 -1 111 1.0621036402881145e-02</internalNodes>
          <leafValues>
            -6.9308662414550781e-01 1.8177914619445801e-01</leafValues></_>
        <_>
          <internalNodes>
            0 -1 101 1.3791805133223534e-02</internalNodes>
          <leafValues>
            2.0221295952796936e-01 -4.8644313216209412e-01</leafValues></_>
        <_>
          <internalNodes>
            0 -1 139 1.4880027621984482e-02</internalNodes>
          <leafValues>
            -5.6837272644042969e-01 1.9389106333255768e-01</leafValues></_>
        <_>
          <internalNodes>
            0 -1 256 4.3992191553115845e-02</internalNodes>
          <leafValues>
            -4.2809164524078369e-01 2.0037560164928436e-01</leafValues></_>
        <_>
          <internalNodes>
            0 -1 56 4.5031040906906128e-02</internalNodes>
          <leafValues>
            2.3188696801662445e-01 -4.0249344706535339e-01</leafValues></_>
        <_>
          <internalNodes>
            0 -1 133 2.3137640208005905e-02</internalNodes>
          <leafValues>
            -3.0158621072769165e-01 2.7960842847824097e-01</leafValues></_>
        <_>
          <internalNodes>
            0 -1 253 4.0075115859508514e-02</internalNodes>
          <leafValues>
            -4.5306485891342163e-01 1.6618485748767853e-01</leafValues></_>
        <_>
          <internalNodes>
            0 -1 200 1.5428720042109489e-02</internalNodes>
          <leafValues>
            -4.3007832765579224e-01 1.8184097111225128e-01</leafValues></_>
        <_>
          <internalNodes>
            0 -1 148 1.8480209633708000e-02</internalNodes>
          <leafValues>
            1.8177595734596252e-01 -4.2436200380325317e-01</leafValues></_>
        <_>
          <internalNodes>
            0 -1 2 2.1600786596536636e-02</internalNodes>
          <leafValues>
            -2.0004537701606750e-01 3.3431190252304077e-01</leafValues></_>
        <_>
          <internalNodes>
            0 -1 89 7.5577232055366039e-03</internalNodes>
          <leafValues>
            3.1551480293273926e-01 -2.2417220473289490e-01</leafValues></_></weakClassifiers></_>
    <!-- stage 5 -->
    <_>
      <maxWeakCount>14</maxWeakCount>
      <stageThreshold>-1.2852951288223267e+00</stageThreshold>
      <weakClassifiers>
        <_>
          <internalNodes>
            0 -1 270 1.2916285544633865e-02</internalNodes>
          <leafValues>
            5.4991906881332397e-01 -2.7586206793785095e-01</leafValues></_>
        <_>
          <internalNodes>
            0 -1 240 1.3874474912881851e-02</internalNodes>
          <leafValues>
            -5.3290057182312012e-01 2.5908693671226501e-01</leafValues></_>
        <_>
          <internalNodes>
            0 -1 91 4.9142222851514816e-03</internalNodes>
          <leafValues>
            3.4006589651107788e-01 -3.5949933528900146e-01</leafValues></_>
        <_>
          <internalNodes>
            0 -1 144 9.3215256929397583e-03</internalNodes>
          <leafValues>
            -7.0698034763336182e-01 1.6287991404533386e-01</leafValues></_>
        <_>
          <internalNodes>
            0 -1 191 4.1909471154212952e-02</internalNodes>
          <leafValues>
            -5.3891748189926147e-01 1.9719474017620087e-01</leafValues></_>
        <_>
          <internalNodes>
            0 -1 155 1.2566219083964825e-02</internalNodes>
          <leafValues>
            1.9035752117633820e-01 -4.4646129012107849e-01</leafValues></_>
        <_>
          <internalNodes>
            0 -1 152 1.6294129192829132e-02</internalNodes>
          <leafValues>
            -4.6907874941825867e-01 2.1149665117263794e-01</leafValues></_>
        <_>
          <internalNodes>
            0 -1 162 2.1721694618463516e-02</internalNodes>
          <leafValues>
            1.6281737387180328e-01 -4.8860549926757812e-01</leafValues></_>
        <_>
          <internalNodes>
            0 -1 109 1.9752619788050652e-02</internalNodes>
          <leafValues>
            -3.0762803554534912e-01 2.7872636914253235e-01</leafValues></_>
        <_>
          <internalNodes>
            0 -1 228 3.0755490064620972e-02</internalNodes>
          <leafValues>
            -5.1481109857559204e-01 1.3051162660121918e-01</leafValues></_>
        <_>
          <internalNodes>
            0 -1 201 8.0147488042712212e-03</internalNodes>
          <leafValues>
            -5.5163937807083130e-01 1.1441873013973236e-01</leafValues></_>
        <_>
          <internalNodes>
            0 -1 217 2.2076847031712532e-02</internalNodes>
          <leafValues>
            1.9838324189186096e-01 -3.3109045028686523e-01</leafValues></_>
        <_>
          <internalNodes>
            0 -1 61 2.5860946625471115e-02</internalNodes>
          <leafValues>
            -1.7715805768966675e-01 3.6565864086151123e-01</leafValues></_>
        <_>
          <internalNodes>
            0 -1 90 2.1872611716389656e-02</internalNodes>
          <leafValues>
            1.5123304724693298e-01 -4.2103978991508484e-01</leafValues></_></weakClassifiers></_>
    <!-- stage 6 -->
    <_>
      <maxWeakCount>17</maxWeakCount>
      <stageThreshold>-1.3209500312805176e+00</stageThreshold>
      <weakClassifiers>
        <_>
          <internalNodes>
            0 -1 277 6.0825221240520477e-02</internalNodes>
          <leafValues>
            -1.9823788106441498e-01 5.7046979665756226e-01</leafValues></_>
        <_>
          <internalNodes>
            0 -1 95 5.8419674634933472e-02</internalNodes>
          <leafValues>
            -2.7982097864151001e-01 4.5197442173957825e-01</leafValues></_>
        <_>
          <internalNodes>
            0 -1 204 1.7595201730728149e-02</internalNodes>
          <leafValues>
            -4.1212624311447144e-01 2.4561507999897003e-01</leafValues></_>
        <_>
          <internalNodes>
            0 -1 170 6.2710955739021301e-02</internalNodes>
          <leafValues>
            -3.3143281936645508e-01 2.8287705779075623e-01</leafValues></_>
        <_>
          <internalNodes>
            0 -1 52 5.4897539317607880e-02</internalNodes>
          <leafValues>
            1.9902960956096649e-01 -5.2217465639114380e-01</leafValues></_>
        <_>
          <internalNodes>
            0 -1 278 6.3568472862243652e-02</internalNodes>
          <leafValues>
            -3.3575823903083801e-01 2.8424385190010071e-01</leafValues></_>
        <_>
          <internalNodes>
            0 -1 76 8.9983139187097549e-03</internalNodes>
          <leafValues>
            2.2674943506717682e-01 -3.5172903537750244e-01</leafValues></_>
        <_>
          <internalNodes>
            0 -1 235 1.1130413040518761e-02</internalNodes>
          <leafValues>
            -6.0641419887542725e-01 1.5036320686340332e-01</leafValues></_>
        <_>
          <internalNodes>
            0 -1 110 2.1284475922584534e-02</internalNodes>
          <leafValues>
            -3.2204154133796692e-01 2.4140778183937073e-01</leafValues></_>
        <_>
          <internalNodes>
            0 -1 99 1.1753766797482967e-02</internalNodes>
          <leafValues>
            2.1401336789131165e-01 -3.5791495442390442e-01</leafValues></_>
        <_>
          <internalNodes>
            0 -1 189 1.3579860329627991e-02</internalNodes>
          <leafValues>
            1.8421646952629089e-01 -3.4363615512847900e-01</leafValues></_>
        <_>
          <internalNodes>
            0 -1 195 8.6693484336137772e-03</internalNodes>
          <leafValues>
            -6.2064361572265625e-01 1.2046364694833755e-01</leafValues></_>
        <_>
          <internalNodes>
            0 -1 132 1.7609154805541039e-02</internalNodes>
          <leafValues>
            -5.8578425645828247e-01 7.9889379441738129e-02</leafValues></_>
        <_>
          <internalNodes>
            0 -1 205 2.0147662609815598e-02</internalNodes>
          <leafValues>
            1.3029880821704865e-01 -3.8788545131683350e-01</leafValues></_>
        <_>
          <internalNodes>
            0 -1 229 1.4250077307224274e-02</internalNodes>
          <leafValues>
            -5.8979052305221558e-01 8.3882085978984833e-02</leafValues></_>
        <_>
          <internalNodes>
            0 -1 40 1.7920264974236488e-02</internalNodes>
          <leafValues>
            -2.7265086770057678e-01 2.1173919737339020e-01</leafValues></_>
        <_>
          <internalNodes>
            0 -1 107 3.8776829838752747e-02</internalNodes>
          <leafValues>
            -1.1672355979681015e-01 4.0992107987403870e-01</leafValues></_></weakClassifiers></_>
    <!-- stage 7 -->
    <_>
      <maxWeakCount>20</maxWeakCount>
      <stageThreshold>-1.2866234779357910e+00</stageThreshold>
      <weakClassifiers>
        <_>
          <internalNodes>
            0 -1 263 5.8082237839698792e-02</internalNodes>
          <leafValues>
            -2.2375215590000153e-01 5.6020069122314453e-01</leafValues></_>
        <_>
          <internalNodes>
            0 -1 94 7.2756381705403328e-03</internalNodes>
          <leafValues>
            3.2599142193794250e-01 -2.8165921568870544e-01</leafValues></_>
        <_>
          <internalNodes>
            0 -1 137 1.0192416608333588e-02</internalNodes>
          <leafValues>
            -5.8289790153503418e-01 1.5860983729362488e-01</leafValues></_>
        <_>
          <internalNodes>
            0 -1 66 8.6030242964625359e-03</internalNodes>
          <leafValues>
            2.6524493098258972e-01 -4.0398564934730530e-01</leafValues></_>
        <_>
          <internalNodes>
            0 -1 200 1.3735715299844742e-02</internalNodes>
          <leafValues>
            -5.1905447244644165e-01 1.6973635554313660e-01</leafValues></_>
        <_>
          <internalNodes>
            0 -1 20 5.4499120451509953e-03</internalNodes>
          <leafValues>
            2.8370133042335510e-01 -3.2286486029624939e-01</leafValues></_>
        <_>
          <internalNodes>
            0 -1 98 3.9473962038755417e-02</internalNodes>
          <leafValues>
            -4.1742846369743347e-01 1.4818027615547180e-01</leafValues></_>
        <_>
          <internalNodes>
            0 -1 113 1.0874831117689610e-02</internalNodes>
          <leafValues>
            -5.3498780727386475e-01 1.6385294497013092e-01</leafValues></_>
        <_>
          <internalNodes>
            0 -1 61 2.2326610982418060e-02</internalNodes>
          <leafValues>
            -2.2327499091625214e-01 3.0444812774658203e-01</leafValues></_>
        <_>
          <internalNodes>
            0 -1 141 4.8546008765697479e-02</internalNodes>
          <leafValues>
            -3.0471876263618469e-01 2.0405928790569305e-01</leafValues></_>
        <_>
          <internalNodes>
            0 -1 133 3.1315162777900696e-02</internalNodes>
          <leafValues>
            -1.7078252136707306e-01 3.7203857302665710e-01</leafValues></_>
        <_>
          <internalNodes>
            0 -1 211 3.2645281404256821e-02</internalNodes>
          <leafValues>
            -4.9246969819068909e-01 1.3605234026908875e-01</leafValues></_>
        <_>
          <internalNodes>
            0 -1 56 3.8404621183872223e-02</internalNodes>
          <leafValues>
            1.9499121606349945e-01 -2.8939512372016907e-01</leafValues></_>
        <_>
          <internalNodes>
            0 -1 223 4.1549600660800934e-02</internalNodes>
          <leafValues>
            -3.6898294091224670e-01 1.5771202743053436e-01</leafValues></_>
        <_>
          <internalNodes>
            0 -1 249 1.8463347107172012e-02</internalNodes>
          <leafValues>
            1.5702189505100250e-01 -3.5460197925567627e-01</leafValues></_>
        <_>
          <internalNodes>
            0 -1 36 2.0428959280252457e-02</internalNodes>
          <leafValues>
            -1.8328578770160675e-01 3.2307690382003784e-01</leafValues></_>
        <_>
          <internalNodes>
            0 -1 169 3.9101424627006054e-03</internalNodes>
          <leafValues>
            -7.0805394649505615e-01 6.7378856241703033e-02</leafValues></_>
        <_>
          <internalNodes>
            0 -1 232 1.7112206667661667e-02</internalNodes>
          <leafValues>
            1.2597791850566864e-01 -3.5161486268043518e-01</leafValues></_>
        <_>
          <internalNodes>
            0 -1 269 4.6316802501678467e-02</internalNodes>
          <leafValues>
            5.5123999714851379e-02 -7.7177578210830688e-01</leafValues></_>
        <_>
          <internalNodes>
            0 -1 109 2.9455959796905518e-02</internalNodes>
          <leafValues>
            -1.5804694592952728e-01 2.8125122189521790e-01</leafValues></_></weakClassifiers></_>
    <!-- stage 8 -->
    <_>
      <maxWeakCount>20</maxWeakCount>
      <stageThreshold>-1.1643725633621216e+00</stageThreshold>
      <weakClassifiers>
        <_>
          <internalNodes>
            0 -1 193 6.1792153865098953e-02</internalNodes>
          <leafValues>
            -1.8711923062801361e-01 5.4568177461624146e-01</leafValues></_>
        <_>
          <internalNodes>
            0 -1 88 6.1970539391040802e-03</internalNodes>
          <leafValues>
            3.6634662747383118e-01 -2.6317718625068665e-01</leafValues></_>
        <_>
          <internalNodes>
            0 -1 238 1.7823083326220512e-02</internalNodes>
          <leafValues>
            -3.8141107559204102e-01 2.2122991085052490e-01</leafValues></_>
        <_>
          <internalNodes>
            0 -1 17 5.2205440588295460e-03</internalNodes>
          <leafValues>
            2.7641952037811279e-01 -3.5094037652015686e-01</leafValues></_>
        <_>
          <internalNodes>
            0 -1 112 1.6326468437910080e-02</internalNodes>
          <leafValues>
            -4.4234502315521240e-01 1.4591009914875031e-01</leafValues></_>
        <_>
          <internalNodes>
            0 -1 121 1.5580369159579277e-02</internalNodes>
          <leafValues>
            1.6981066763401031e-01 -4.2759463191032410e-01</leafValues></_>
        <_>
          <internalNodes>
            0 -1 136 1.1707684025168419e-02</internalNodes>
          <leafValues>
            -5.0121593475341797e-01 1.1227784305810928e-01</leafValues></_>
        <_>
          <internalNodes>
            0 -1 239 5.1725365221500397e-02</internalNodes>
          <leafValues>
            -2.3691453039646149e-01 2.9336988925933838e-01</leafValues></_>
        <_>
          <internalNodes>
            0 -1 209 1.7667457461357117e-02</internalNodes>
          <leafValues>
            1.4712208509445190e-01 -3.6821416020393372e-01</leafValues></_>
        <_>
          <internalNodes>
            0 -1 206 1.4814571477472782e-02</internalNodes>
          <leafValues>
            -5.5607742071151733e-01 1.0396985709667206e-01</leafValues></_>
        <_>
          <internalNodes>
            0 -1 109 2.6567142456769943e-02</internalNodes>
          <leafValues>
            -1.9813017547130585e-01 2.8907823562622070e-01</leafValues></_>
        <_>
          <internalNodes>
            0 -1 280 3.4793406724929810e-02</internalNodes>
          <leafValues>
            -5.5125701427459717e-01 1.2026187032461166e-01</leafValues></_>
        <_>
          <internalNodes>
            0 -1 106 4.5093208551406860e-02</internalNodes>
          <leafValues>
            -1.1531830579042435e-01 4.7144174575805664e-01</leafValues></_>
        <_>
          <internalNodes>
            0 -1 8 2.9988103779032826e-04</internalNodes>
          <leafValues>
            -8.4690648317337036e-01 6.6784031689167023e-02</leafValues></_>
        <_>
          <internalNodes>
            0 -1 10 4.7749988734722137e-03</internalNodes>
          <leafValues>
            2.4335935711860657e-01 -1.9287213683128357e-01</leafValues></_>
        <_>
          <internalNodes>
            0 -1 195 6.0952669009566307e-03</internalNodes>
          <leafValues>
            -7.1990752220153809e-01 6.5255761146545410e-02</leafValues></_>
        <_>
          <internalNodes>
            0 -1 28 6.5685160458087921e-02</internalNodes>
          <leafValues>
            1.0624173283576965e-01 -3.7268102169036865e-01</leafValues></_>
        <_>
          <internalNodes>
            0 -1 247 3.5910435020923615e-02</internalNodes>
          <leafValues>
            -4.9807393550872803e-01 9.9255271255970001e-02</leafValues></_>
        <_>
          <internalNodes>
            0 -1 54 2.2867560386657715e-02</internalNodes>
          <leafValues>
            2.6634919643402100e-01 -1.7465613782405853e-01</leafValues></_>
        <_>
          <internalNodes>
            0 -1 168 3.5137332975864410e-02</internalNodes>
          <leafValues>
            8.4391012787818909e-02 -5.2386808395385742e-01</leafValues></_></weakClassifiers></_>
    <!-- stage 9 -->
    <_>
      <maxWeakCount>28</maxWeakCount>
      <stageThreshold>-1.3470759391784668e+00</stageThreshold>
      <weakClassifiers>
        <_>
          <internalNodes>
            0 -1 125 1.2832894921302795e-02</internalNodes>
          <leafValues>
            5.2740657329559326e-01 -1.6989843547344208e-01</leafValues></_>
        <_>
          <internalNodes>
            0 -1 166 8.1685975193977356e-02</internalNodes>
          <leafValues>
            -3.0713644623756409e-01 3.0493897199630737e-01</leafValues></_>
        <_>
          <internalNodes>
            0 -1 149 1.2789677828550339e-02</internalNodes>
          <leafValues>
            -5.4422122240066528e-01 1.4061509072780609e-01</leafValues></_>
        <_>
          <internalNodes>
            0 -1 259 2.1151898428797722e-02</internalNodes>
          <leafValues>
            1.3929429650306702e-01 -5.0930553674697876e-01</leafValues></_>
        <_>
          <internalNodes>
            0 -1 68 7.2495425119996071e-03</internalNodes>
          <leafValues>
            1.8143065273761749e-01 -3.4244096279144287e-01</leafValues></_>
        <_>
          <internalNodes>
            0 -1 152 2.2453222423791885e-02</internalNodes>
          <leafValues>
            -2.9700520634651184e-01 2.4271261692047119e-01</leafValues></_>
        <_>
          <internalNodes>
            0 -1 93 1.0974111035466194e-02</internalNodes>
          <leafValues>
            2.2314760088920593e-01 -2.9074329137802124e-01</leafValues></_>
        <_>
          <internalNodes>
            0 -1 39 1.4529531821608543e-02</internalNodes>
          <leafValues>
            -3.1644985079765320e-01 1.9373592734336853e-01</leafValues></_>
        <_>
          <internalNodes>
            0 -1 109 1.3923367485404015e-02</internalNodes>
          <leafValues>
            -3.2064253091812134e-01 1.5051364898681641e-01</leafValues></_>
        <_>
          <internalNodes>
            0 -1 266 3.0981393530964851e-02</internalNodes>
          <leafValues>
            -4.1978943347930908e-01 1.3054762780666351e-01</leafValues></_>
        <_>
          <internalNodes>
            0 -1 207 2.2377651184797287e-02</internalNodes>
          <leafValues>
            -3.0326166749000549e-01 1.8498948216438293e-01</leafValues></_>
        <_>
          <internalNodes>
            0 -1 62 7.8910514712333679e-02</internalNodes>
          <leafValues>
            1.1529200524091721e-01 -4.1403743624687195e-01</leafValues></_>
        <_>
          <internalNodes>
            0 -1 227 1.6286877915263176e-02</internalNodes>
          <leafValues>
            1.2125686556100845e-01 -4.2182165384292603e-01</leafValues></_>
        <_>
          <internalNodes>
            0 -1 0 3.1798288226127625e-02</internalNodes>
          <leafValues>
            2.0470124483108521e-01 -2.2965581715106964e-01</leafValues></_>
        <_>
          <internalNodes>
            0 -1 262 2.1283453330397606e-02</internalNodes>
          <leafValues>
            1.2756267189979553e-01 -3.9503550529479980e-01</leafValues></_>
        <_>
          <internalNodes>
            0 -1 246 2.1505415439605713e-02</internalNodes>
          <leafValues>
            9.8108232021331787e-02 -4.3695989251136780e-01</leafValues></_>
        <_>
          <internalNodes>
            0 -1 237 1.3243762776255608e-02</internalNodes>
          <leafValues>
            -3.2734152674674988e-01 1.3727015256881714e-01</leafValues></_>
        <_>
          <internalNodes>
            0 -1 157 1.0038877837359905e-02</internalNodes>
          <leafValues>
            -4.5094469189643860e-01 9.0354934334754944e-02</leafValues></_>
        <_>
          <internalNodes>
            0 -1 79 3.9441630244255066e-02</internalNodes>
          <leafValues>
            -2.3817656934261322e-01 1.8519638478755951e-01</leafValues></_>
        <_>
          <internalNodes>
            0 -1 16 5.5917017161846161e-03</internalNodes>
          <leafValues>
            2.1565486490726471e-01 -1.7990989983081818e-01</leafValues></_>
        <_>
          <internalNodes>
            0 -1 245 5.8588860556483269e-03</internalNodes>
          <leafValues>
            -6.3837039470672607e-01 6.9997929036617279e-02</leafValues></_>
        <_>
          <internalNodes>
            0 -1 5 1.0358902812004089e-01</internalNodes>
          <leafValues>
            -1.2243577837944031e-01 2.9537463188171387e-01</leafValues></_>
        <_>
          <internalNodes>
            0 -1 58 2.0220899954438210e-02</internalNodes>
          <leafValues>
            -2.1892446279525757e-01 1.7630761861801147e-01</leafValues></_>
        <_>
          <internalNodes>
            0 -1 102 1.7578672617673874e-02</internalNodes>
          <leafValues>
            8.8196545839309692e-02 -4.1279429197311401e-01</leafValues></_>
        <_>
          <internalNodes>
            0 -1 267 3.9946930482983589e-03</internalNodes>
          <leafValues>
            -8.9388567209243774e-01 3.2627638429403305e-02</leafValues></_>
        <_>
          <internalNodes>
            0 -1 116 1.2612358666956425e-02</internalNodes>
          <leafValues>
            1.2534886598587036e-01 -2.5036889314651489e-01</leafValues></_>
        <_>
          <internalNodes>
            0 -1 117 3.6170072853565216e-02</internalNodes>
          <leafValues>
            -1.0501845180988312e-01 2.9949334263801575e-01</leafValues></_>
        <_>
          <internalNodes>
            0 -1 192 1.7500653862953186e-02</internalNodes>
          <leafValues>
            -5.2548259496688843e-01 5.9965282678604126e-02</leafValues></_></weakClassifiers></_>
    <!-- stage 10 -->
    <_>
      <maxWeakCount>30</maxWeakCount>
      <stageThreshold>-1.3016568422317505e+00</stageThreshold>
      <weakClassifiers>
        <_>
          <internalNodes>
            0 -1 210 1.1793145909905434e-02</internalNodes>
          <leafValues>
            5.2807140350341797e-01 -1.5665914118289948e-01</leafValues></_>
        <_>
          <internalNodes>
            0 -1 155 1.1545372195541859e-02</internalNodes>
          <leafValues>
            2.2425329685211182e-01 -3.9387243986129761e-01</leafValues></_>
        <_>
          <internalNodes>
            0 -1 147 1.5526983886957169e-02</internalNodes>
          <leafValues>
            -4.4974151253700256e-01 1.6086298227310181e-01</leafValues></_>
        <_>
          <internalNodes>
            0 -1 86 6.1980611644685268e-03</internalNodes>
          <leafValues>
            2.8145834803581238e-01 -2.3590740561485291e-01</leafValues></_>
        <_>
          <internalNodes>
            0 -1 235 1.4284837990999222e-02</internalNodes>
          <leafValues>
            -4.1954097151756287e-01 1.4288899302482605e-01</leafValues></_>
        <_>
          <internalNodes>
            0 -1 185 1.3266413472592831e-02</internalNodes>
          <leafValues>
            1.6799004375934601e-01 -3.6198920011520386e-01</leafValues></_>
        <_>
          <internalNodes>
            0 -1 120 4.4406026601791382e-02</internalNodes>
          <leafValues>
            -3.9308598637580872e-01 1.3429585099220276e-01</leafValues></_>
        <_>
          <internalNodes>
            0 -1 115 7.5671467930078506e-03</internalNodes>
          <leafValues>
            -4.1963428258895874e-01 1.1234842240810394e-01</leafValues></_>
        <_>
          <internalNodes>
            0 -1 54 4.6724237501621246e-02</internalNodes>
          <leafValues>
            1.5659298002719879e-01 -3.2575553655624390e-01</leafValues></_>
        <_>
          <internalNodes>
            0 -1 18 2.1590325050055981e-03</internalNodes>
          <leafValues>
            2.9407334327697754e-01 -1.7227745056152344e-01</leafValues></_>
        <_>
          <internalNodes>
            0 -1 231 2.8641758486628532e-02</internalNodes>
          <leafValues>
            7.6258383691310883e-02 -5.0241160392761230e-01</leafValues></_>
        <_>
          <internalNodes>
            0 -1 200 1.7473431304097176e-02</internalNodes>
          <leafValues>
            -3.1753844022750854e-01 1.4171874523162842e-01</leafValues></_>
        <_>
          <internalNodes>
            0 -1 254 2.5027658790349960e-02</internalNodes>
          <leafValues>
            -6.4244008064270020e-01 7.4539020657539368e-02</leafValues></_>
        <_>
          <internalNodes>
            0 -1 92 9.1575253754854202e-03</internalNodes>
          <leafValues>
            1.6721649467945099e-01 -2.5983598828315735e-01</leafValues></_>
        <_>
          <internalNodes>
            0 -1 236 1.1298208497464657e-02</internalNodes>
          <leafValues>
            -2.9475292563438416e-01 1.4591464400291443e-01</leafValues></_>
        <_>
          <internalNodes>
            0 -1 127 3.2706957310438156e-02</internalNodes>
          <leafValues>
            -3.7554764747619629e-01 9.3020312488079071e-02</leafValues></_>
        <_>
          <internalNodes>
            0 -1 196 5.0499979406595230e-03</internalNodes>
          <leafValues>
            -4.6459478139877319e-01 7.7715165913105011e-02</leafValues></_>
        <_>
          <internalNodes>
            0 -1 11 2.6213065721094608e-03</internalNodes>
          <leafValues>
            3.0757662653923035e-01 -1.4385141432285309e-01</leafValues></_>
        <_>
          <internalNodes>
            0 -1 24 5.9947468340396881e-02</internalNodes>
          <leafValues>
            1.1949937790632248e-01 -3.0957382917404175e-01</leafValues></_>
        <_>
          <internalNodes>
            0 -1 271 4.5138694345951080e-02</internalNodes>
          <leafValues>
            5.9900309890508652e-02 -5.6962561607360840e-01</leafValues></_>
        <_>
          <internalNodes>
            0 -1 35 4.8776581883430481e-02</internalNodes>
          <leafValues>
            1.3110369443893433e-01 -2.6301497220993042e-01</leafValues></_>
        <_>
          <internalNodes>
            0 -1 243 1.9346397370100021e-02</internalNodes>
          <leafValues>
            1.1686338484287262e-01 -3.0369442701339722e-01</leafValues></_>
        <_>
          <internalNodes>
            0 -1 84 2.0527232438325882e-02</internalNodes>
          <leafValues>
            8.9169189333915710e-02 -3.5741028189659119e-01</leafValues></_>
        <_>
          <internalNodes>
            0 -1 29 8.1105217337608337e-02</internalNodes>
          <leafValues>
            6.9949671626091003e-02 -4.6235737204551697e-01</leafValues></_>
        <_>
          <internalNodes>
            0 -1 134 2.9076462611556053e-02</internalNodes>
          <leafValues>
            -1.2331738322973251e-01 2.7567631006240845e-01</leafValues></_>
        <_>
          <internalNodes>
            0 -1 268 3.8226366043090820e-02</internalNodes>
          <leafValues>
            -4.7637045383453369e-01 7.8507110476493835e-02</leafValues></_>
        <_>
          <internalNodes>
            0 -1 64 7.9950183862820268e-04</internalNodes>
          <leafValues>
            -8.8782787322998047e-01 2.9529150575399399e-02</leafValues></_>
        <_>
          <internalNodes>
            0 -1 252 7.5208675116300583e-03</internalNodes>
          <leafValues>
            -5.7160961627960205e-01 4.4549662619829178e-02</leafValues></_>
        <_>
          <internalNodes>
            0 -1 181 2.4457298219203949e-02</internalNodes>
          <leafValues>
            1.3186290860176086e-01 -2.5789064168930054e-01</leafValues></_>
        <_>
          <internalNodes>
            0 -1 110 3.7844188511371613e-02</internalNodes>
          <leafValues>
            -1.0123908519744873e-01 3.0246290564537048e-01</leafValues></_></weakClassifiers></_>
    <!-- stage 11 -->
    <_>
      <maxWeakCount>37</maxWeakCount>
      <stageThreshold>-1.2886872291564941e+00</stageThreshold>
      <weakClassifiers>
        <_>
          <internalNodes>
            0 -1 193 8.7023600935935974e-02</internalNodes>
          <leafValues>
            5.1509767770767212e-02 5.9309226274490356e-01</leafValues></_>
        <_>
          <internalNodes>
            0 -1 78 7.5160050764679909e-03</internalNodes>
          <leafValues>
            2.8787943720817566e-01 -2.6766547560691833e-01</leafValues></_>
        <_>
          <internalNodes>
            0 -1 65 7.5634322129189968e-03</internalNodes>
          <leafValues>
            1.9869528710842133e-01 -3.4097805619239807e-01</leafValues></_>
        <_>
          <internalNodes>
            0 -1 154 1.4472987502813339e-02</internalNodes>
          <leafValues>
            -5.4539632797241211e-01 1.1063110083341599e-01</leafValues></_>
        <_>
          <internalNodes>
            0 -1 259 1.6151485964655876e-02</internalNodes>
          <leafValues>
            1.7594464123249054e-01 -3.1813773512840271e-01</leafValues></_>
        <_>
          <internalNodes>
            0 -1 201 8.6313635110855103e-03</internalNodes>
          <leafValues>
            -4.4435566663742065e-01 1.2340242415666580e-01</leafValues></_>
        <_>
          <internalNodes>
            0 -1 224 1.9551232457160950e-02</internalNodes>
          <leafValues>
            7.3575258255004883e-02 -4.2712029814720154e-01</leafValues></_>
        <_>
          <internalNodes>
            0 -1 264 1.2653712183237076e-02</internalNodes>
          <leafValues>
            -4.6911877393722534e-01 1.2721022963523865e-01</leafValues></_>
        <_>
          <internalNodes>
            0 -1 163 1.6929227858781815e-02</internalNodes>
          <leafValues>
            1.3381928205490112e-01 -3.4135892987251282e-01</leafValues></_>
        <_>
          <internalNodes>
            0 -1 133 1.9434316083788872e-02</internalNodes>
          <leafValues>
            -2.3328220844268799e-01 1.9551521539688110e-01</leafValues></_>
        <_>
          <internalNodes>
            0 -1 257 4.2910538613796234e-02</internalNodes>
          <leafValues>
            -3.5018998384475708e-01 1.2016563117504120e-01</leafValues></_>
        <_>
          <internalNodes>
            0 -1 110 1.7228053882718086e-02</internalNodes>
          <leafValues>
            -3.0051079392433167e-01 1.5857969224452972e-01</leafValues></_>
        <_>
          <internalNodes>
            0 -1 188 1.8379770219326019e-02</internalNodes>
          <leafValues>
            1.1480278521776199e-01 -3.9103004336357117e-01</leafValues></_>
        <_>
          <internalNodes>
            0 -1 164 2.0389245823025703e-02</internalNodes>
          <leafValues>
            -4.3430179357528687e-01 9.0539567172527313e-02</leafValues></_>
        <_>
          <internalNodes>
            0 -1 33 3.1745679676532745e-02</internalNodes>
          <leafValues>
            -1.8265834450721741e-01 2.2940652072429657e-01</leafValues></_>
        <_>
          <internalNodes>
            0 -1 129 3.8413718342781067e-02</internalNodes>
          <leafValues>
            -3.1108435988426208e-01 1.4078812301158905e-01</leafValues></_>
        <_>
          <internalNodes>
            0 -1 34 2.8109246864914894e-02</internalNodes>
          <leafValues>
            -1.8799827992916107e-01 2.1871618926525116e-01</leafValues></_>
        <_>
          <internalNodes>
            0 -1 26 1.9854979589581490e-02</internalNodes>
          <leafValues>
            -1.7011891305446625e-01 2.3967079818248749e-01</leafValues></_>
        <_>
          <internalNodes>
            0 -1 260 6.0634892433881760e-03</internalNodes>
          <leafValues>
            -5.6750637292861938e-01 5.1837470382452011e-02</leafValues></_>
        <_>
          <internalNodes>
            0 -1 15 2.6648300699889660e-03</internalNodes>
          <leafValues>
            2.3811915516853333e-01 -1.6939663887023926e-01</leafValues></_>
        <_>
          <internalNodes>
            0 -1 178 2.3984495550394058e-02</internalNodes>
          <leafValues>
            1.1774751543998718e-01 -2.6474303007125854e-01</leafValues></_>
        <_>
          <internalNodes>
            0 -1 283 3.4517642110586166e-02</internalNodes>
          <leafValues>
            5.3541336208581924e-02 -5.6786423921585083e-01</leafValues></_>
        <_>
          <internalNodes>
            0 -1 52 3.5839036107063293e-02</internalNodes>
          <leafValues>
            1.4939182996749878e-01 -2.3129558563232422e-01</leafValues></_>
        <_>
          <internalNodes>
            0 -1 2 3.2664328813552856e-02</internalNodes>
          <leafValues>
            -1.1077559739351273e-01 3.0135807394981384e-01</leafValues></_>
        <_>
          <internalNodes>
            0 -1 208 4.2914018034934998e-02</internalNodes>
          <leafValues>
            -3.4984856843948364e-01 9.7480528056621552e-02</leafValues></_>
        <_>
          <internalNodes>
            0 -1 179 5.5142166092991829e-03</internalNodes>
          <leafValues>
            -4.3721786141395569e-01 6.7861400544643402e-02</leafValues></_>
        <_>
          <internalNodes>
            0 -1 275 4.8338718712329865e-02</internalNodes>
          <leafValues>
            -1.8393149971961975e-01 1.6702407598495483e-01</leafValues></_>
        <_>
          <internalNodes>
            0 -1 234 1.6057346016168594e-02</internalNodes>
          <leafValues>
            -3.1960567831993103e-01 9.8728403449058533e-02</leafValues></_>
        <_>
          <internalNodes>
            0 -1 83 7.5537320226430893e-03</internalNodes>
          <leafValues>
            1.8237829208374023e-01 -1.5988901257514954e-01</leafValues></_>
        <_>
          <internalNodes>
            0 -1 38 4.8065483570098877e-02</internalNodes>
          <leafValues>
            1.7110602557659149e-01 -1.8164871633052826e-01</leafValues></_>
        <_>
          <internalNodes>
            0 -1 109 3.6831416189670563e-02</internalNodes>
          <leafValues>
            -9.0014368295669556e-02 2.8527733683586121e-01</leafValues></_>
        <_>
          <internalNodes>
            0 -1 7 5.3863856010138988e-03</internalNodes>
          <leafValues>
            1.9121685624122620e-01 -1.4081482589244843e-01</leafValues></_>
        <_>
          <internalNodes>
            0 -1 174 3.0401434749364853e-02</internalNodes>
          <leafValues>
            -4.6538037061691284e-01 5.5625434964895248e-02</leafValues></_>
        <_>
          <internalNodes>
            0 -1 213 8.1112235784530640e-03</internalNodes>
          <leafValues>
            -2.5258749723434448e-01 1.1708119511604309e-01</leafValues></_>
        <_>
          <internalNodes>
            0 -1 269 3.6821894347667694e-02</internalNodes>
          <leafValues>
            4.2978536337614059e-02 -5.7532149553298950e-01</leafValues></_>
        <_>
          <internalNodes>
            0 -1 71 4.0353689342737198e-02</internalNodes>
          <leafValues>
            -7.9899370670318604e-02 3.1057876348495483e-01</leafValues></_>
        <_>
          <internalNodes>
            0 -1 242 2.0609530620276928e-03</internalNodes>
          <leafValues>
            -5.9738039970397949e-01 4.1552063077688217e-02</leafValues></_></weakClassifiers></_>
    <!-- stage 12 -->
    <_>
      <maxWeakCount>40</maxWeakCount>
      <stageThreshold>-1.2582404613494873e+00</stageThreshold>
      <weakClassifiers>
        <_>
          <internalNodes>
            0 -1 282 9.7229667007923126e-03</internalNodes>
          <leafValues>
            5.4518073797225952e-01 -4.1958041489124298e-02</leafValues></_>
        <_>
          <internalNodes>
            0 -1 123 9.3793086707592010e-03</internalNodes>
          <leafValues>
            2.4380654096603394e-01 -3.4706550836563110e-01</leafValues></_>
        <_>
          <internalNodes>
            0 -1 73 9.3436241149902344e-02</internalNodes>
          <leafValues>
            -1.9530305266380310e-01 2.7010840177536011e-01</leafValues></_>
        <_>
          <internalNodes>
            0 -1 202 2.4608124047517776e-02</internalNodes>
          <leafValues>
            -2.2155842185020447e-01 2.5268477201461792e-01</leafValues></_>
        <_>
          <internalNodes>
            0 -1 190 5.8858022093772888e-02</internalNodes>
          <leafValues>
            -3.1299984455108643e-01 1.7409741878509521e-01</leafValues></_>
        <_>
          <internalNodes>
            0 -1 61 1.2663761153817177e-02</internalNodes>
          <leafValues>
            -3.2528942823410034e-01 1.5379859507083893e-01</leafValues></_>
        <_>
          <internalNodes>
            0 -1 110 1.6564110293984413e-02</internalNodes>
          <leafValues>
            -2.9949358105659485e-01 1.4653322100639343e-01</leafValues></_>
        <_>
          <internalNodes>
            0 -1 21 1.6952507430687547e-03</internalNodes>
          <leafValues>
            2.7194088697433472e-01 -1.9056706130504608e-01</leafValues></_>
        <_>
          <internalNodes>
            0 -1 135 1.3900364749133587e-02</internalNodes>
          <leafValues>
            -3.5157531499862671e-01 1.2761004269123077e-01</leafValues></_>
        <_>
          <internalNodes>
            0 -1 249 2.3284021764993668e-02</internalNodes>
          <leafValues>
            7.9369537532329559e-02 -5.3140324354171753e-01</leafValues></_>
        <_>
          <internalNodes>
            0 -1 57 3.4748971462249756e-02</internalNodes>
          <leafValues>
            -1.5640947222709656e-01 2.7328717708587646e-01</leafValues></_>
        <_>
          <internalNodes>
            0 -1 221 2.3395562544465065e-02</internalNodes>
          <leafValues>
            1.5058125555515289e-01 -3.0180233716964722e-01</leafValues></_>
        <_>
          <internalNodes>
            0 -1 258 4.6956151723861694e-02</internalNodes>
          <leafValues>
            -3.8342791795730591e-01 1.1011741310358047e-01</leafValues></_>
        <_>
          <internalNodes>
            0 -1 180 5.2223498933017254e-03</internalNodes>
          <leafValues>
            -5.2257192134857178e-01 8.7654456496238708e-02</leafValues></_>
        <_>
          <internalNodes>
            0 -1 37 2.3657668381929398e-02</internalNodes>
          <leafValues>
            -1.4258027076721191e-01 3.2013812661170959e-01</leafValues></_>
        <_>
          <internalNodes>
            0 -1 74 1.2745155021548271e-02</internalNodes>
          <leafValues>
            -4.6037310361862183e-01 7.1114115417003632e-02</leafValues></_>
        <_>
          <internalNodes>
            0 -1 1 2.1847262978553772e-02</internalNodes>
          <leafValues>
            2.4364285171031952e-01 -1.3204434514045715e-01</leafValues></_>
        <_>
          <internalNodes>
            0 -1 241 1.0491095483303070e-02</internalNodes>
          <leafValues>
            -6.6336852312088013e-01 5.1135905086994171e-02</leafValues></_>
        <_>
          <internalNodes>
            0 -1 102 1.3289699330925941e-02</internalNodes>
          <leafValues>
            8.9478187263011932e-02 -3.3458641171455383e-01</leafValues></_>
        <_>
          <internalNodes>
            0 -1 119 2.8560601174831390e-02</internalNodes>
          <leafValues>
            -5.0365519523620605e-01 6.2476348131895065e-02</leafValues></_>
        <_>
          <internalNodes>
            0 -1 157 6.3888966105878353e-03</internalNodes>
          <leafValues>
            -6.6243463754653931e-01 4.3151836842298508e-02</leafValues></_>
        <_>
          <internalNodes>
            0 -1 55 2.8532266616821289e-02</internalNodes>
          <leafValues>
            -1.8316376209259033e-01 1.7145350575447083e-01</leafValues></_>
        <_>
          <internalNodes>
            0 -1 262 1.8586318939924240e-02</internalNodes>
          <leafValues>
            1.1826624721288681e-01 -2.7667939662933350e-01</leafValues></_>
        <_>
          <internalNodes>
            0 -1 158 3.3754920586943626e-03</internalNodes>
          <leafValues>
            -6.5204095840454102e-01 3.9004094898700714e-02</leafValues></_>
        <_>
          <internalNodes>
            0 -1 96 1.0761114768683910e-02</internalNodes>
          <leafValues>
            1.4235435426235199e-01 -1.9037857651710510e-01</leafValues></_>
        <_>
          <internalNodes>
            0 -1 60 8.9764624834060669e-02</internalNodes>
          <leafValues>
            6.4754322171211243e-02 -4.3886178731918335e-01</leafValues></_>
        <_>
          <internalNodes>
            0 -1 14 6.8328706547617912e-03</internalNodes>
          <leafValues>
            1.4061412215232849e-01 -1.7150275409221649e-01</leafValues></_>
        <_>
          <internalNodes>
            0 -1 114 5.3424108773469925e-03</internalNodes>
          <leafValues>
            -3.4426441788673401e-01 8.4722332656383514e-02</leafValues></_>
        <_>
          <internalNodes>
            0 -1 199 4.6913534402847290e-02</internalNodes>
          <leafValues>
            4.8609316349029541e-02 -4.7616165876388550e-01</leafValues></_>
        <_>
          <internalNodes>
            0 -1 117 3.8132902234792709e-02</internalNodes>
          <leafValues>
            -9.6443213522434235e-02 2.5958400964736938e-01</leafValues></_>
        <_>
          <internalNodes>
            0 -1 82 3.4918268211185932e-03</internalNodes>
          <leafValues>
            2.2127990424633026e-01 -1.2001807242631912e-01</leafValues></_>
        <_>
          <internalNodes>
            0 -1 261 9.1267284005880356e-03</internalNodes>
          <leafValues>
            -4.6123218536376953e-01 5.7035982608795166e-02</leafValues></_>
        <_>
          <internalNodes>
            0 -1 42 1.2192542850971222e-01</internalNodes>
          <leafValues>
            -8.4482103586196899e-02 3.1483364105224609e-01</leafValues></_>
        <_>
          <internalNodes>
            0 -1 108 1.3761218637228012e-02</internalNodes>
          <leafValues>
            1.1309864372014999e-01 -2.2158151865005493e-01</leafValues></_>
        <_>
          <internalNodes>
            0 -1 216 1.2252703309059143e-02</internalNodes>
          <leafValues>
            -1.7008753120899200e-01 1.6103033721446991e-01</leafValues></_>
        <_>
          <internalNodes>
            0 -1 6 2.6878690347075462e-02</internalNodes>
          <leafValues>
            -2.0452179014682770e-01 1.2390299886465073e-01</leafValues></_>
        <_>
          <internalNodes>
            0 -1 0 2.0125050097703934e-02</internalNodes>
          <leafValues>
            2.0059521496295929e-01 -1.2403517961502075e-01</leafValues></_>
        <_>
          <internalNodes>
            0 -1 45 7.2972513735294342e-03</internalNodes>
          <leafValues>
            1.5981647372245789e-01 -1.5175929665565491e-01</leafValues></_>
        <_>
          <internalNodes>
            0 -1 107 3.4301705658435822e-02</internalNodes>
          <leafValues>
            -1.0327420383691788e-01 2.5743699073791504e-01</leafValues></_>
        <_>
          <internalNodes>
            0 -1 230 3.7253093905746937e-03</internalNodes>
          <leafValues>
            -8.6313796043395996e-01 3.0304180458188057e-02</leafValues></_></weakClassifiers></_>
    <!-- stage 13 -->
    <_>
      <maxWeakCount>45</maxWeakCount>
      <stageThreshold>-1.2218347787857056e+00</stageThreshold>
      <weakClassifiers>
        <_>
          <internalNodes>
            0 -1 187 1.1954108253121376e-02</internalNodes>
          <leafValues>
            5.1320964097976685e-01 -6.3758388161659241e-02</leafValues></_>
        <_>
          <internalNodes>
            0 -1 77 4.5981369912624359e-03</internalNodes>
          <leafValues>
            2.9483076930046082e-01 -2.4664083123207092e-01</leafValues></_>
        <_>
          <internalNodes>
            0 -1 214 8.8492110371589661e-02</internalNodes>
          <leafValues>
            -2.4339945614337921e-01 2.4577961862087250e-01</leafValues></_>
        <_>
          <internalNodes>
            0 -1 131 2.8237298130989075e-02</internalNodes>
          <leafValues>
            -2.2714726626873016e-01 2.3486784100532532e-01</leafValues></_>
        <_>
          <internalNodes>
            0 -1 138 1.2911674566566944e-02</internalNodes>
          <leafValues>
            -4.6343693137168884e-01 1.0851557552814484e-01</leafValues></_>
        <_>
          <internalNodes>
            0 -1 218 2.4023791775107384e-02</internalNodes>
          <leafValues>
            9.3046359717845917e-02 -3.7000873684883118e-01</leafValues></_>
        <_>
          <internalNodes>
            0 -1 203 1.9825961440801620e-02</internalNodes>
          <leafValues>
            -3.4426045417785645e-01 1.4876218140125275e-01</leafValues></_>
        <_>
          <internalNodes>
            0 -1 19 2.8941859491169453e-03</internalNodes>
          <leafValues>
            2.8335106372833252e-01 -1.5100850164890289e-01</leafValues></_>
        <_>
          <internalNodes>
            0 -1 109 1.1395089328289032e-02</internalNodes>
          <leafValues>
            -3.8960465788841248e-01 9.1677851974964142e-02</leafValues></_>
        <_>
          <internalNodes>
            0 -1 248 4.4110067188739777e-02</internalNodes>
          <leafValues>
            -3.1595748662948608e-01 1.2614730000495911e-01</leafValues></_>
        <_>
          <internalNodes>
            0 -1 130 2.6121374219655991e-02</internalNodes>
          <leafValues>
            -1.6252624988555908e-01 2.4436376988887787e-01</leafValues></_>
        <_>
          <internalNodes>
            0 -1 276 1.8921516835689545e-02</internalNodes>
          <leafValues>
            9.8115392029285431e-02 -3.4235021471977234e-01</leafValues></_>
        <_>
          <internalNodes>
            0 -1 167 5.4166843183338642e-03</internalNodes>
          <leafValues>
            -6.1054778099060059e-01 5.8969344943761826e-02</leafValues></_>
        <_>
          <internalNodes>
            0 -1 72 6.9524832069873810e-03</internalNodes>
          <leafValues>
            1.9921913743019104e-01 -1.8180751800537109e-01</leafValues></_>
        <_>
          <internalNodes>
            0 -1 39 1.9341403618454933e-02</internalNodes>
          <leafValues>
            -1.8987600505352020e-01 2.0559865236282349e-01</leafValues></_>
        <_>
          <internalNodes>
            0 -1 176 8.7826270610094070e-03</internalNodes>
          <leafValues>
            1.5301901102066040e-01 -2.1347050368785858e-01</leafValues></_>
        <_>
          <internalNodes>
            0 -1 56 3.8314972072839737e-02</internalNodes>
          <leafValues>
            1.4231592416763306e-01 -2.4596108496189117e-01</leafValues></_>
        <_>
          <internalNodes>
            0 -1 159 6.2125455588102341e-03</internalNodes>
          <leafValues>
            -3.8593643903732300e-01 8.7156809866428375e-02</leafValues></_>
        <_>
          <internalNodes>
            0 -1 211 2.8891444206237793e-02</internalNodes>
          <leafValues>
            -4.7290632128715515e-01 6.2971368432044983e-02</leafValues></_>
        <_>
          <internalNodes>
            0 -1 69 1.3282077386975288e-02</internalNodes>
          <leafValues>
            7.9362899065017700e-02 -3.3465859293937683e-01</leafValues></_>
        <_>
          <internalNodes>
            0 -1 29 6.0740705579519272e-02</internalNodes>
          <leafValues>
            9.6314996480941772e-02 -3.0483955144882202e-01</leafValues></_>
        <_>
          <internalNodes>
            0 -1 27 3.6096468567848206e-02</internalNodes>
          <leafValues>
            -9.6294701099395752e-02 3.3533510565757751e-01</leafValues></_>
        <_>
          <internalNodes>
            0 -1 227 1.6462653875350952e-02</internalNodes>
          <leafValues>
            9.3598581850528717e-02 -3.5205435752868652e-01</leafValues></_>
        <_>
          <internalNodes>
            0 -1 186 2.1887591108679771e-02</internalNodes>
          <leafValues>
            -4.8036321997642517e-01 5.9065565466880798e-02</leafValues></_>
        <_>
          <internalNodes>
            0 -1 37 3.8585588335990906e-02</internalNodes>
          <leafValues>
            -7.3369659483432770e-02 4.4147494435310364e-01</leafValues></_>
        <_>
          <internalNodes>
            0 -1 235 1.3552508316934109e-02</internalNodes>
          <leafValues>
            -3.1991299986839294e-01 9.4274729490280151e-02</leafValues></_>
        <_>
          <internalNodes>
            0 -1 13 5.5418112315237522e-03</internalNodes>
          <leafValues>
            1.7711244523525238e-01 -1.4935915172100067e-01</leafValues></_>
        <_>
          <internalNodes>
            0 -1 31 2.7811625972390175e-02</internalNodes>
          <leafValues>
            1.4431266486644745e-01 -1.7850628495216370e-01</leafValues></_>
        <_>
          <internalNodes>
            0 -1 165 2.3272223770618439e-02</internalNodes>
          <leafValues>
            -3.5480612516403198e-01 8.5882842540740967e-02</leafValues></_>
        <_>
          <internalNodes>
            0 -1 122 1.5931732952594757e-02</internalNodes>
          <leafValues>
            1.6339978575706482e-01 -1.5751229226589203e-01</leafValues></_>
        <_>
          <internalNodes>
            0 -1 220 7.6158558949828148e-03</internalNodes>
          <leafValues>
            -2.6300635933876038e-01 1.1297471821308136e-01</leafValues></_>
        <_>
          <internalNodes>
            0 -1 215 4.7536842525005341e-02</internalNodes>
          <leafValues>
            -3.3051532506942749e-01 9.0290002524852753e-02</leafValues></_>
        <_>
          <internalNodes>
            0 -1 252 5.7679200544953346e-03</internalNodes>
          <leafValues>
            -8.3579838275909424e-01 3.1098682433366776e-02</leafValues></_>
        <_>
          <internalNodes>
            0 -1 32 3.5351857542991638e-02</internalNodes>
          <leafValues>
            -9.8649337887763977e-02 2.6539611816406250e-01</leafValues></_>
        <_>
          <internalNodes>
            0 -1 156 2.4039687588810921e-02</internalNodes>
          <leafValues>
            7.6418727636337280e-02 -3.7829849123954773e-01</leafValues></_>
        <_>
          <internalNodes>
            0 -1 233 8.2550458610057831e-03</internalNodes>
          <leafValues>
            -7.2426003217697144e-01 2.7907548472285271e-02</leafValues></_>
        <_>
          <internalNodes>
            0 -1 104 3.1156077980995178e-02</internalNodes>
          <leafValues>
            -8.6656823754310608e-02 2.6898357272148132e-01</leafValues></_>
        <_>
          <internalNodes>
            0 -1 46 5.0207436084747314e-02</internalNodes>
          <leafValues>
            -1.8758918344974518e-01 1.2508453428745270e-01</leafValues></_>
        <_>
          <internalNodes>
            0 -1 50 3.6810822784900665e-02</internalNodes>
          <leafValues>
            -7.8380435705184937e-02 2.7157518267631531e-01</leafValues></_>
        <_>
          <internalNodes>
            0 -1 49 1.2052581878378987e-03</internalNodes>
          <leafValues>
            4.3043315410614014e-01 -4.5582313090562820e-02</leafValues></_>
        <_>
          <internalNodes>
            0 -1 250 5.8206701651215553e-03</internalNodes>
          <leafValues>
            -7.5119102001190186e-01 3.3747430890798569e-02</leafValues></_>
        <_>
          <internalNodes>
            0 -1 265 1.9357748329639435e-02</internalNodes>
          <leafValues>
            4.2770069092512131e-02 -4.3221721053123474e-01</leafValues></_>
        <_>
          <internalNodes>
            0 -1 3 9.9923019297420979e-04</internalNodes>
          <leafValues>
            -4.4121998548507690e-01 4.6655215322971344e-02</leafValues></_>
        <_>
          <internalNodes>
            0 -1 81 6.1527723446488380e-03</internalNodes>
          <leafValues>
            1.9424311816692352e-01 -1.1534082144498825e-01</leafValues></_>
        <_>
          <internalNodes>
            0 -1 140 5.7594059035181999e-03</internalNodes>
          <leafValues>
            -2.9339563846588135e-01 7.8130692243576050e-02</leafValues></_></weakClassifiers></_>
    <!-- stage 14 -->
    <_>
      <maxWeakCount>51</maxWeakCount>
      <stageThreshold>-1.2271898984909058e+00</stageThreshold>
      <weakClassifiers>
        <_>
          <internalNodes>
            0 -1 225 8.0220311880111694e-02</internalNodes>
          <leafValues>
            1.0761842131614685e-01 6.1130309104919434e-01</leafValues></_>
        <_>
          <internalNodes>
            0 -1 87 9.8051875829696655e-02</internalNodes>
          <leafValues>
            -1.6021022200584412e-01 3.4139472246170044e-01</leafValues></_>
        <_>
          <internalNodes>
            0 -1 23 6.6090733744204044e-03</internalNodes>
          <leafValues>
            1.8416492640972137e-01 -3.1069600582122803e-01</leafValues></_>
        <_>
          <internalNodes>
            0 -1 212 1.2806257233023643e-02</internalNodes>
          <leafValues>
            1.9391709566116333e-01 -2.2789545357227325e-01</leafValues></_>
        <_>
          <internalNodes>
            0 -1 251 9.2158466577529907e-03</internalNodes>
          <leafValues>
            -5.7070827484130859e-01 4.4523503631353378e-02</leafValues></_>
        <_>
          <internalNodes>
            0 -1 124 8.2467664033174515e-03</internalNodes>
          <leafValues>
            1.6401472687721252e-01 -2.7169862389564514e-01</leafValues></_>
        <_>
          <internalNodes>
            0 -1 204 1.5206849202513695e-02</internalNodes>
          <leafValues>
            -4.0567460656166077e-01 9.3581929802894592e-02</leafValues></_>
        <_>
          <internalNodes>
            0 -1 117 2.9371209442615509e-02</internalNodes>
          <leafValues>
            -1.5640744566917419e-01 2.6949340105056763e-01</leafValues></_>
        <_>
          <internalNodes>
            0 -1 107 2.7741685509681702e-02</internalNodes>
          <leafValues>
            -1.6519452631473541e-01 2.5470149517059326e-01</leafValues></_>
        <_>
          <internalNodes>
            0 -1 183 1.1136775836348534e-02</internalNodes>
          <leafValues>
            1.6831524670124054e-01 -2.4476110935211182e-01</leafValues></_>
        <_>
          <internalNodes>
            0 -1 25 1.6747739166021347e-02</internalNodes>
          <leafValues>
            -2.1798574924468994e-01 1.8377184867858887e-01</leafValues></_>
        <_>
          <internalNodes>
            0 -1 244 3.5677999258041382e-02</internalNodes>
          <leafValues>
            -3.4345439076423645e-01 1.1681892722845078e-01</leafValues></_>
        <_>
          <internalNodes>
            0 -1 36 1.3955856673419476e-02</internalNodes>
          <leafValues>
            -2.0275311172008514e-01 2.0256863534450531e-01</leafValues></_>
        <_>
          <internalNodes>
            0 -1 145 4.5386210083961487e-02</internalNodes>
          <leafValues>
            -3.8030385971069336e-01 9.9959321320056915e-02</leafValues></_>
        <_>
          <internalNodes>
            0 -1 63 1.7117317765951157e-02</internalNodes>
          <leafValues>
            -2.4280543625354767e-01 1.1438065022230148e-01</leafValues></_>
        <_>
          <internalNodes>
            0 -1 82 1.2992622330784798e-02</internalNodes>
          <leafValues>
            1.1603410542011261e-01 -2.6839593052864075e-01</leafValues></_>
        <_>
          <internalNodes>
            0 -1 59 2.4309575557708740e-02</internalNodes>
          <leafValues>
            -1.1059008538722992e-01 2.7027663588523865e-01</leafValues></_>
        <_>
          <internalNodes>
            0 -1 284 1.5102823264896870e-02</internalNodes>
          <leafValues>
            8.8540591299533844e-02 -3.6504566669464111e-01</leafValues></_>
        <_>
          <internalNodes>
            0 -1 150 1.3910990208387375e-02</internalNodes>
          <leafValues>
            -4.4171532988548279e-01 5.7833019644021988e-02</leafValues></_>
        <_>
          <internalNodes>
            0 -1 126 1.5101974830031395e-02</internalNodes>
          <leafValues>
            -4.9004411697387695e-01 5.5113509297370911e-02</leafValues></_>
        <_>
          <internalNodes>
            0 -1 195 1.2231374159455299e-02</internalNodes>
          <leafValues>
            -3.2585501670837402e-01 8.0315448343753815e-02</leafValues></_>
        <_>
          <internalNodes>
            0 -1 80 3.8409553468227386e-02</internalNodes>
          <leafValues>
            -2.5162744522094727e-01 1.0776762664318085e-01</leafValues></_>
        <_>
          <internalNodes>
            0 -1 44 3.4453317523002625e-02</internalNodes>
          <leafValues>
            -1.2281236052513123e-01 2.2178964316844940e-01</leafValues></_>
        <_>
          <internalNodes>
            0 -1 246 1.7628245055675507e-02</internalNodes>
          <leafValues>
            9.6435219049453735e-02 -2.5767013430595398e-01</leafValues></_>
        <_>
          <internalNodes>
            0 -1 161 3.1331703066825867e-03</internalNodes>
          <leafValues>
            -7.6245445013046265e-01 3.3770203590393066e-02</leafValues></_>
        <_>
          <internalNodes>
            0 -1 9 6.9183935411274433e-03</internalNodes>
          <leafValues>
            1.4509512484073639e-01 -1.6610728204250336e-01</leafValues></_>
        <_>
          <internalNodes>
            0 -1 173 3.1316177919507027e-03</internalNodes>
          <leafValues>
            -6.8699222803115845e-01 3.8657486438751221e-02</leafValues></_>
        <_>
          <internalNodes>
            0 -1 53 4.0846817195415497e-02</internalNodes>
          <leafValues>
            1.0658940672874451e-01 -2.1691203117370605e-01</leafValues></_>
        <_>
          <internalNodes>
            0 -1 105 3.9138287305831909e-02</internalNodes>
          <leafValues>
            -1.7196379601955414e-01 1.5071408450603485e-01</leafValues></_>
        <_>
          <internalNodes>
            0 -1 43 6.8558058701455593e-03</internalNodes>
          <leafValues>
            -6.2085145711898804e-01 3.8760207593441010e-02</leafValues></_>
        <_>
          <internalNodes>
            0 -1 4 1.1304058134555817e-01</internalNodes>
          <leafValues>
            4.8688545823097229e-02 -4.3675875663757324e-01</leafValues></_>
        <_>
          <internalNodes>
            0 -1 172 7.4251228943467140e-03</internalNodes>
          <leafValues>
            1.5712846815586090e-01 -1.4469414949417114e-01</leafValues></_>
        <_>
          <internalNodes>
            0 -1 146 4.9151321873068810e-03</internalNodes>
          <leafValues>
            -3.5868635773658752e-01 6.2674209475517273e-02</leafValues></_>
        <_>
          <internalNodes>
            0 -1 222 1.9715845584869385e-02</internalNodes>
          <leafValues>
            7.8682653605937958e-02 -2.6503080129623413e-01</leafValues></_>
        <_>
          <internalNodes>
            0 -1 135 7.8513352200388908e-03</internalNodes>
          <leafValues>
            -4.2482811212539673e-01 5.0907064229249954e-02</leafValues></_>
        <_>
          <internalNodes>
            0 -1 85 8.7299467995762825e-03</internalNodes>
          <leafValues>
            1.3245366513729095e-01 -1.6202625632286072e-01</leafValues></_>
        <_>
          <internalNodes>
            0 -1 260 5.0708130002021790e-03</internalNodes>
          <leafValues>
            -6.8110847473144531e-01 3.4571994096040726e-02</leafValues></_>
        <_>
          <internalNodes>
            0 -1 226 1.5371737070381641e-02</internalNodes>
          <leafValues>
            1.1622288078069687e-01 -1.9317199289798737e-01</leafValues></_>
        <_>
          <internalNodes>
            0 -1 118 8.8664591312408447e-03</internalNodes>
          <leafValues>
            -5.0960826873779297e-01 4.3201871216297150e-02</leafValues></_>
        <_>
          <internalNodes>
            0 -1 48 2.5020215660333633e-02</internalNodes>
          <leafValues>
            -7.4964769184589386e-02 2.9789665341377258e-01</leafValues></_>
        <_>
          <internalNodes>
            0 -1 265 2.3152299225330353e-02</internalNodes>
          <leafValues>
            3.6932114511728287e-02 -5.8452498912811279e-01</leafValues></_>
        <_>
          <internalNodes>
            0 -1 97 2.4974122643470764e-02</internalNodes>
          <leafValues>
            -8.2582153379917145e-02 2.5618076324462891e-01</leafValues></_>
        <_>
          <internalNodes>
            0 -1 271 3.6516234278678894e-02</internalNodes>
          <leafValues>
            6.2159765511751175e-02 -3.7213909626007080e-01</leafValues></_>
        <_>
          <internalNodes>
            0 -1 47 1.0922492295503616e-01</internalNodes>
          <leafValues>
            4.6899415552616119e-02 -3.9228388667106628e-01</leafValues></_>
        <_>
          <internalNodes>
            0 -1 22 2.1689571440219879e-03</internalNodes>
          <leafValues>
            2.7516093850135803e-01 -7.6788224279880524e-02</leafValues></_>
        <_>
          <internalNodes>
            0 -1 51 5.6146416813135147e-02</internalNodes>
          <leafValues>
            1.0001872479915619e-01 -2.2017769515514374e-01</leafValues></_>
        <_>
          <internalNodes>
            0 -1 128 1.5408592298626900e-02</internalNodes>
          <leafValues>
            -5.5718910694122314e-01 3.5965211689472198e-02</leafValues></_>
        <_>
          <internalNodes>
            0 -1 41 6.8816030398011208e-03</internalNodes>
          <leafValues>
            1.6494123637676239e-01 -1.2037149816751480e-01</leafValues></_>
        <_>
          <internalNodes>
            0 -1 182 4.5880256220698357e-03</internalNodes>
          <leafValues>
            -4.3165722489356995e-01 4.6943794935941696e-02</leafValues></_>
        <_>
          <internalNodes>
            0 -1 75 4.3065544217824936e-02</internalNodes>
          <leafValues>
            -4.7158308327198029e-02 4.3809130787849426e-01</leafValues></_>
        <_>
          <internalNodes>
            0 -1 12 1.9189139129593968e-03</internalNodes>
          <leafValues>
            2.3713454604148865e-01 -7.9492107033729553e-02</leafValues></_></weakClassifiers></_></stages>
  <features>
    <_>
      <rect>
        0 12 8 8 22</rect></_>
    <_>
      <rect>
        0 28 8 8 22</rect></_>
    <_>
      <rect>
        0 40 8 8 7</rect></_>
    <_>
      <rect>
        4 48 8 8 35</rect></_>
    <_>
      <rect>
        8 0 8 8 4</rect></_>
    <_>
      <rect>
        8 28 8 8 13</rect></_>
    <_>
      <rect>
        28 0 8 8 3</rect></_>
    <_>
      <rect>
        28 0 8 8 33</rect></_>
    <_>
      <rect>
        28 40 8 8 30</rect></_>
    <_>
      <rect>
        32 0 8 8 24</rect></_>
    <_>
      <rect>
        32 0 8 8 33</rect></_>
    <_>
      <rect>
        40 8 8 8 1</rect></_>
    <_>
      <rect>
        48 12 8 8 0</rect></_>
    <_>
      <rect>
        48 20 8 8 19</rect></_>
    <_>
      <rect>
        48 20 8 8 34</rect></_>
    <_>
      <rect>
        56 8 8 8 9</rect></_>
    <_>
      <rect>
        56 8 8 8 10</rect></_>
    <_>
      <rect>
        60 4 8 8 17</rect></_>
    <_>
      <rect>
        64 0 8 8 27</rect></_>
    <_>
      <rect>
        64 8 8 8 10</rect></_>
    <_>
      <rect>
        68 4 8 8 17</rect></_>
    <_>
      <rect>
        72 4 8 8 8</rect></_>
    <_>
      <rect>
        72 4 8 8 19</rect></_>
    <_>
      <rect>
        76 4 8 8 0</rect></_>
    <_>
      <rect>
        96 0 8 8 31</rect></_>
    <_>
      <rect>
        96 36 8 8 17</rect></_>
    <_>
      <rect>
        96 40 8 8 9</rect></_>
    <_>
      <rect>
        96 44 8 8 9</rect></_>
    <_>
      <rect>
        0 4 8 16 4</rect></_>
    <_>
      <rect>
        0 8 8 16 4</rect></_>
    <_>
      <rect>
        0 12 8 16 4</rect></_>
    <_>
      <rect>
        0 12 8 16 21</rect></_>
    <_>
      <rect>
        0 16 8 16 0</rect></_>
    <_>
      <rect>
        0 16 8 16 8</rect></_>
    <_>
      <rect>
        0 16 8 16 14</rect></_>
    <_>
      <rect>
        0 20 8 16 22</rect></_>
    <_>
      <rect>
        0 24 8 16 24</rect></_>
    <_>
      <rect>
        0 28 8 16 24</rect></_>
    <_>
      <rect>
        0 32 8 16 4</rect></_>
    <_>
      <rect>
        0 32 8 16 7</rect></_>
    <_>
      <rect>
        0 32 8 16 8</rect></_>
    <_>
      <rect>
        4 8 8 16 28</rect></_>
    <_>
      <rect>
        4 32 8 16 13</rect></_>
    <_>
      <rect>
        8 8 8 16 3</rect></_>
    <_>
      <rect>
        8 20 8 16 5</rect></_>
    <_>
      <rect>
        12 12 8 16 28</rect></_>
    <_>
      <rect>
        12 20 8 16 4</rect></_>
    <_>
      <rect>
        24 16 8 16 3</rect></_>
    <_>
      <rect>
        48 20 8 16 26</rect></_>
    <_>
      <rect>
        56 4 8 16 1</rect></_>
    <_>
      <rect>
        92 0 8 16 16</rect></_>
    <_>
      <rect>
        96 4 8 16 13</rect></_>
    <_>
      <rect>
        96 4 8 16 31</rect></_>
    <_>
      <rect>
        96 8 8 16 31</rect></_>
    <_>
      <rect>
        96 12 8 16 31</rect></_>
    <_>
      <rect>
        96 16 8 16 17</rect></_>
    <_>
      <rect>
        96 16 8 16 31</rect></_>
    <_>
      <rect>
        96 20 8 16 2</rect></_>
    <_>
      <rect>
        96 24 8 16 17</rect></_>
    <_>
      <rect>
        96 28 8 16 28</rect></_>
    <_>
      <rect>
        96 28 8 16 31</rect></_>
    <_>
      <rect>
        96 32 8 16 9</rect></_>
    <_>
      <rect>
        96 32 8 16 13</rect></_>
    <_>
      <rect>
        0 8 16 8 26</rect></_>
    <_>
      <rect>
        4 40 16 8 30</rect></_>
    <_>
      <rect>
        8 4 16 8 9</rect></_>
    <_>
      <rect>
        8 4 16 8 17</rect></_>
    <_>
      <rect>
        12 0 16 8 17</rect></_>
    <_>
      <rect>
        12 4 16 8 9</rect></_>
    <_>
      <rect>
        12 4 16 8 16</rect></_>
    <_>
      <rect>
        12 4 16 8 17</rect></_>
    <_>
      <rect>
        12 8 16 8 5</rect></_>
    <_>
      <rect>
        12 24 16 8 19</rect></_>
    <_>
      <rect>
        20 48 16 8 13</rect></_>
    <_>
      <rect>
        24 40 16 8 12</rect></_>
    <_>
      <rect>
        28 16 16 8 15</rect></_>
    <_>
      <rect>
        32 4 16 8 7</rect></_>
    <_>
      <rect>
        32 4 16 8 8</rect></_>
    <_>
      <rect>
        32 48 16 8 25</rect></_>
    <_>
      <rect>
        36 0 16 8 3</rect></_>
    <_>
      <rect>
        36 0 16 8 13</rect></_>
    <_>
      <rect>
        36 48 16 8 28</rect></_>
    <_>
      <rect>
        40 0 16 8 17</rect></_>
    <_>
      <rect>
        40 20 16 8 33</rect></_>
    <_>
      <rect>
        44 0 16 8 17</rect></_>
    <_>
      <rect>
        44 8 16 8 10</rect></_>
    <_>
      <rect>
        44 40 16 8 33</rect></_>
    <_>
      <rect>
        44 48 16 8 4</rect></_>
    <_>
      <rect>
        44 48 16 8 25</rect></_>
    <_>
      <rect>
        44 48 16 8 26</rect></_>
    <_>
      <rect>
        48 0 16 8 8</rect></_>
    <_>
      <rect>
        48 4 16 8 9</rect></_>
    <_>
      <rect>
        48 48 16 8 18</rect></_>
    <_>
      <rect>
        48 48 16 8 28</rect></_>
    <_>
      <rect>
        52 44 16 8 27</rect></_>
    <_>
      <rect>
        52 48 16 8 3</rect></_>
    <_>
      <rect>
        56 44 16 8 19</rect></_>
    <_>
      <rect>
        60 20 16 8 0</rect></_>
    <_>
      <rect>
        60 32 16 8 3</rect></_>
    <_>
      <rect>
        64 0 16 8 8</rect></_>
    <_>
      <rect>
        64 48 16 8 3</rect></_>
    <_>
      <rect>
        68 4 16 8 8</rect></_>
    <_>
      <rect>
        72 4 16 8 0</rect></_>
    <_>
      <rect>
        72 4 16 8 8</rect></_>
    <_>
      <rect>
        72 20 16 8 1</rect></_>
    <_>
      <rect>
        72 20 16 8 30</rect></_>
    <_>
      <rect>
        76 0 16 8 15</rect></_>
    <_>
      <rect>
        80 4 16 8 15</rect></_>
    <_>
      <rect>
        80 16 16 8 24</rect></_>
    <_>
      <rect>
        0 0 16 16 1</rect></_>
    <_>
      <rect>
        0 4 16 16 1</rect></_>
    <_>
      <rect>
        0 8 16 16 8</rect></_>
    <_>
      <rect>
        0 12 16 16 8</rect></_>
    <_>
      <rect>
        0 16 16 16 7</rect></_>
    <_>
      <rect>
        0 16 16 16 25</rect></_>
    <_>
      <rect>
        0 20 16 16 26</rect></_>
    <_>
      <rect>
        0 32 16 16 34</rect></_>
    <_>
      <rect>
        4 0 16 16 1</rect></_>
    <_>
      <rect>
        16 8 16 16 21</rect></_>
    <_>
      <rect>
        16 24 16 16 4</rect></_>
    <_>
      <rect>
        24 8 16 16 31</rect></_>
    <_>
      <rect>
        28 0 16 16 8</rect></_>
    <_>
      <rect>
        28 16 16 16 2</rect></_>
    <_>
      <rect>
        32 0 16 16 0</rect></_>
    <_>
      <rect>
        32 0 16 16 7</rect></_>
    <_>
      <rect>
        52 0 16 16 16</rect></_>
    <_>
      <rect>
        52 20 16 16 21</rect></_>
    <_>
      <rect>
        64 12 16 16 22</rect></_>
    <_>
      <rect>
        68 12 16 16 13</rect></_>
    <_>
      <rect>
        68 24 16 16 12</rect></_>
    <_>
      <rect>
        76 0 16 16 15</rect></_>
    <_>
      <rect>
        76 16 16 16 11</rect></_>
    <_>
      <rect>
        76 16 16 16 12</rect></_>
    <_>
      <rect>
        80 0 16 16 15</rect></_>
    <_>
      <rect>
        80 0 16 16 16</rect></_>
    <_>
      <rect>
        80 4 16 16 15</rect></_>
    <_>
      <rect>
        80 4 16 16 16</rect></_>
    <_>
      <rect>
        80 8 16 16 16</rect></_>
    <_>
      <rect>
        80 8 16 16 17</rect></_>
    <_>
      <rect>
        80 12 16 16 17</rect></_>
    <_>
      <rect>
        80 24 16 16 35</rect></_>
    <_>
      <rect>
        80 28 16 16 3</rect></_>
    <_>
      <rect>
        0 0 16 32 0</rect></_>
    <_>
      <rect>
        0 0 16 32 1</rect></_>
    <_>
      <rect>
        0 0 16 32 7</rect></_>
    <_>
      <rect>
        0 0 16 32 13</rect></_>
    <_>
      <rect>
        0 0 16 32 26</rect></_>
    <_>
      <rect>
        4 0 16 32 6</rect></_>
    <_>
      <rect>
        36 0 16 32 0</rect></_>
    <_>
      <rect>
        76 0 16 32 10</rect></_>
    <_>
      <rect>
        76 0 16 32 11</rect></_>
    <_>
      <rect>
        80 0 16 32 9</rect></_>
    <_>
      <rect>
        80 0 16 32 15</rect></_>
    <_>
      <rect>
        80 0 16 32 16</rect></_>
    <_>
      <rect>
        80 0 16 32 17</rect></_>
    <_>
      <rect>
        0 0 32 16 16</rect></_>
    <_>
      <rect>
        0 0 32 16 17</rect></_>
    <_>
      <rect>
        0 0 32 16 26</rect></_>
    <_>
      <rect>
        0 12 32 16 15</rect></_>
    <_>
      <rect>
        0 12 32 16 17</rect></_>
    <_>
      <rect>
        0 28 32 16 13</rect></_>
    <_>
      <rect>
        0 32 32 16 23</rect></_>
    <_>
      <rect>
        4 8 32 16 20</rect></_>
    <_>
      <rect>
        4 16 32 16 20</rect></_>
    <_>
      <rect>
        4 24 32 16 30</rect></_>
    <_>
      <rect>
        4 28 32 16 3</rect></_>
    <_>
      <rect>
        4 28 32 16 13</rect></_>
    <_>
      <rect>
        8 0 32 16 25</rect></_>
    <_>
      <rect>
        8 28 32 16 26</rect></_>
    <_>
      <rect>
        12 0 32 16 25</rect></_>
    <_>
      <rect>
        12 24 32 16 12</rect></_>
    <_>
      <rect>
        12 32 32 16 12</rect></_>
    <_>
      <rect>
        12 32 32 16 25</rect></_>
    <_>
      <rect>
        16 0 32 16 26</rect></_>
    <_>
      <rect>
        16 28 32 16 4</rect></_>
    <_>
      <rect>
        16 28 32 16 12</rect></_>
    <_>
      <rect>
        16 32 32 16 25</rect></_>
    <_>
      <rect>
        16 32 32 16 26</rect></_>
    <_>
      <rect>
        20 20 32 16 2</rect></_>
    <_>
      <rect>
        24 12 32 16 8</rect></_>
    <_>
      <rect>
        28 0 32 16 35</rect></_>
    <_>
      <rect>
        28 16 32 16 2</rect></_>
    <_>
      <rect>
        32 0 32 16 35</rect></_>
    <_>
      <rect>
        32 28 32 16 16</rect></_>
    <_>
      <rect>
        32 32 32 16 27</rect></_>
    <_>
      <rect>
        36 8 32 16 33</rect></_>
    <_>
      <rect>
        36 28 32 16 12</rect></_>
    <_>
      <rect>
        36 32 32 16 27</rect></_>
    <_>
      <rect>
        40 0 32 16 8</rect></_>
    <_>
      <rect>
        40 12 32 16 33</rect></_>
    <_>
      <rect>
        40 28 32 16 3</rect></_>
    <_>
      <rect>
        40 32 32 16 3</rect></_>
    <_>
      <rect>
        44 24 32 16 12</rect></_>
    <_>
      <rect>
        44 28 32 16 4</rect></_>
    <_>
      <rect>
        44 28 32 16 21</rect></_>
    <_>
      <rect>
        48 0 32 16 35</rect></_>
    <_>
      <rect>
        48 12 32 16 8</rect></_>
    <_>
      <rect>
        48 12 32 16 9</rect></_>
    <_>
      <rect>
        48 28 32 16 3</rect></_>
    <_>
      <rect>
        48 28 32 16 35</rect></_>
    <_>
      <rect>
        0 0 24 24 1</rect></_>
    <_>
      <rect>
        0 0 24 24 24</rect></_>
    <_>
      <rect>
        0 8 24 24 6</rect></_>
    <_>
      <rect>
        0 12 24 24 5</rect></_>
    <_>
      <rect>
        0 12 24 24 6</rect></_>
    <_>
      <rect>
        4 4 24 24 20</rect></_>
    <_>
      <rect>
        4 12 24 24 5</rect></_>
    <_>
      <rect>
        4 16 24 24 5</rect></_>
    <_>
      <rect>
        8 16 24 24 4</rect></_>
    <_>
      <rect>
        12 0 24 24 20</rect></_>
    <_>
      <rect>
        12 4 24 24 18</rect></_>
    <_>
      <rect>
        12 12 24 24 31</rect></_>
    <_>
      <rect>
        16 0 24 24 20</rect></_>
    <_>
      <rect>
        16 0 24 24 35</rect></_>
    <_>
      <rect>
        16 16 24 24 13</rect></_>
    <_>
      <rect>
        40 0 24 24 4</rect></_>
    <_>
      <rect>
        40 0 24 24 26</rect></_>
    <_>
      <rect>
        40 12 24 24 14</rect></_>
    <_>
      <rect>
        40 16 24 24 14</rect></_>
    <_>
      <rect>
        44 0 24 24 3</rect></_>
    <_>
      <rect>
        44 0 24 24 26</rect></_>
    <_>
      <rect>
        44 12 24 24 14</rect></_>
    <_>
      <rect>
        44 12 24 24 16</rect></_>
    <_>
      <rect>
        48 0 24 24 3</rect></_>
    <_>
      <rect>
        48 4 24 24 16</rect></_>
    <_>
      <rect>
        48 16 24 24 3</rect></_>
    <_>
      <rect>
        56 0 24 24 32</rect></_>
    <_>
      <rect>
        56 0 24 24 34</rect></_>
    <_>
      <rect>
        56 8 24 24 12</rect></_>
    <_>
      <rect>
        56 16 24 24 21</rect></_>
    <_>
      <rect>
        56 16 24 24 30</rect></_>
    <_>
      <rect>
        56 16 24 24 35</rect></_>
    <_>
      <rect>
        60 0 24 24 7</rect></_>
    <_>
      <rect>
        60 16 24 24 21</rect></_>
    <_>
      <rect>
        64 0 24 24 14</rect></_>
    <_>
      <rect>
        64 0 24 24 15</rect></_>
    <_>
      <rect>
        64 0 24 24 28</rect></_>
    <_>
      <rect>
        64 0 24 24 29</rect></_>
    <_>
      <rect>
        64 8 24 24 10</rect></_>
    <_>
      <rect>
        64 8 24 24 21</rect></_>
    <_>
      <rect>
        64 12 24 24 10</rect></_>
    <_>
      <rect>
        64 12 24 24 11</rect></_>
    <_>
      <rect>
        64 16 24 24 27</rect></_>
    <_>
      <rect>
        0 0 48 24 20</rect></_>
    <_>
      <rect>
        0 0 48 24 30</rect></_>
    <_>
      <rect>
        0 4 48 24 10</rect></_>
    <_>
      <rect>
        0 4 48 24 20</rect></_>
    <_>
      <rect>
        4 0 48 24 4</rect></_>
    <_>
      <rect>
        4 0 48 24 12</rect></_>
    <_>
      <rect>
        4 4 48 24 20</rect></_>
    <_>
      <rect>
        4 8 48 24 6</rect></_>
    <_>
      <rect>
        8 4 48 24 10</rect></_>
    <_>
      <rect>
        8 8 48 24 10</rect></_>
    <_>
      <rect>
        8 12 48 24 12</rect></_>
    <_>
      <rect>
        12 0 48 24 12</rect></_>
    <_>
      <rect>
        12 4 48 24 12</rect></_>
    <_>
      <rect>
        12 4 48 24 22</rect></_>
    <_>
      <rect>
        16 0 48 24 3</rect></_>
    <_>
      <rect>
        16 0 48 24 4</rect></_>
    <_>
      <rect>
        16 0 48 24 32</rect></_>
    <_>
      <rect>
        16 4 48 24 6</rect></_>
    <_>
      <rect>
        16 4 48 24 10</rect></_>
    <_>
      <rect>
        16 12 48 24 0</rect></_>
    <_>
      <rect>
        16 16 48 24 4</rect></_>
    <_>
      <rect>
        16 16 48 24 10</rect></_>
    <_>
      <rect>
        0 0 32 32 27</rect></_>
    <_>
      <rect>
        0 0 32 32 30</rect></_>
    <_>
      <rect>
        4 0 32 32 23</rect></_>
    <_>
      <rect>
        8 0 32 32 4</rect></_>
    <_>
      <rect>
        8 0 32 32 26</rect></_>
    <_>
      <rect>
        12 0 32 32 18</rect></_>
    <_>
      <rect>
        16 0 32 32 8</rect></_>
    <_>
      <rect>
        16 0 32 32 12</rect></_>
    <_>
      <rect>
        16 0 32 32 22</rect></_>
    <_>
      <rect>
        20 0 32 32 4</rect></_>
    <_>
      <rect>
        20 0 32 32 30</rect></_>
    <_>
      <rect>
        28 0 32 32 16</rect></_>
    <_>
      <rect>
        32 0 32 32 4</rect></_>
    <_>
      <rect>
        32 0 32 32 22</rect></_>
    <_>
      <rect>
        36 0 32 32 4</rect></_>
    <_>
      <rect>
        36 0 32 32 12</rect></_>
    <_>
      <rect>
        36 0 32 32 34</rect></_>
    <_>
      <rect>
        40 0 32 32 34</rect></_>
    <_>
      <rect>
        40 0 32 32 35</rect></_>
    <_>
      <rect>
        44 0 32 32 34</rect></_></features></cascade>
</opencv_storage>
