<?xml version="1.0"?>
<opencv_storage>
<stage5>
  <maxWeakCount>14</maxWeakCount>
  <stageThreshold>-1.2852951288223267e+00</stageThreshold>
  <weakClassifiers>
    <_>
      <internalNodes>
        0 -1 45486 1.2916285544633865e-02</internalNodes>
      <leafValues>
        5.4991906881332397e-01 -2.7586206793785095e-01</leafValues></_>
    <_>
      <internalNodes>
        0 -1 44398 1.3874474912881851e-02</internalNodes>
      <leafValues>
        -5.3290057182312012e-01 2.5908693671226501e-01</leafValues></_>
    <_>
      <internalNodes>
        0 -1 25461 4.9142222851514816e-03</internalNodes>
      <leafValues>
        3.4006589651107788e-01 -3.5949933528900146e-01</leafValues></_>
    <_>
      <internalNodes>
        0 -1 36439 9.3215256929397583e-03</internalNodes>
      <leafValues>
        -7.0698034763336182e-01 1.6287991404533386e-01</leafValues></_>
    <_>
      <internalNodes>
        0 -1 40719 4.1909471154212952e-02</internalNodes>
      <leafValues>
        -5.3891748189926147e-01 1.9719474017620087e-01</leafValues></_>
    <_>
      <internalNodes>
        0 -1 37204 1.2566219083964825e-02</internalNodes>
      <leafValues>
        1.9035752117633820e-01 -4.4646129012107849e-01</leafValues></_>
    <_>
      <internalNodes>
        0 -1 37167 1.6294129192829132e-02</internalNodes>
      <leafValues>
        -4.6907874941825867e-01 2.1149665117263794e-01</leafValues></_>
    <_>
      <internalNodes>
        0 -1 37604 2.1721694618463516e-02</internalNodes>
      <leafValues>
        1.6281737387180328e-01 -4.8860549926757812e-01</leafValues></_>
    <_>
      <internalNodes>
        0 -1 29629 1.9752619788050652e-02</internalNodes>
      <leafValues>
        -3.0762803554534912e-01 2.7872636914253235e-01</leafValues></_>
    <_>
      <internalNodes>
        0 -1 44004 3.0755490064620972e-02</internalNodes>
      <leafValues>
        -5.1481109857559204e-01 1.3051162660121918e-01</leafValues></_>
    <_>
      <internalNodes>
        0 -1 41424 8.0147488042712212e-03</internalNodes>
      <leafValues>
        -5.5163937807083130e-01 1.1441873013973236e-01</leafValues></_>
    <_>
      <internalNodes>
        0 -1 43322 2.2076847031712532e-02</internalNodes>
      <leafValues>
        1.9838324189186096e-01 -3.3109045028686523e-01</leafValues></_>
    <_>
      <internalNodes>
        0 -1 19773 2.5860946625471115e-02</internalNodes>
      <leafValues>
        -1.7715805768966675e-01 3.6565864086151123e-01</leafValues></_>
    <_>
      <internalNodes>
        0 -1 25424 2.1872611716389656e-02</internalNodes>
      <leafValues>
        1.5123304724693298e-01 -4.2103978991508484e-01</leafValues></_></weakClassifiers></stage5>
</opencv_storage>
