<?xml version="1.0"?>
<opencv_storage>
<stage17>
  <maxWeakCount>52</maxWeakCount>
  <stageThreshold>-1.1736673116683960e+00</stageThreshold>
  <weakClassifiers>
    <_>
      <internalNodes>
        0 -1 33183 3.2085245475172997e-03</internalNodes>
      <leafValues>
        6.6228407621383667e-01 1.6562889516353607e-01</leafValues></_>
    <_>
      <internalNodes>
        0 -1 42456 8.8354930281639099e-02</internalNodes>
      <leafValues>
        -1.5808433294296265e-01 3.5446265339851379e-01</leafValues></_>
    <_>
      <internalNodes>
        0 -1 42554 2.2766383364796638e-02</internalNodes>
      <leafValues>
        1.6506390273571014e-01 -3.0657050013542175e-01</leafValues></_>
    <_>
      <internalNodes>
        0 -1 44610 2.0098287612199783e-02</internalNodes>
      <leafValues>
        -2.4855791032314301e-01 2.0177461206912994e-01</leafValues></_>
    <_>
      <internalNodes>
        0 -1 29629 3.1262740492820740e-02</internalNodes>
      <leafValues>
        -1.9576227664947510e-01 2.6859170198440552e-01</leafValues></_>
    <_>
      <internalNodes>
        0 -1 43564 6.9629952311515808e-02</internalNodes>
      <leafValues>
        -2.5658318400382996e-01 1.5597938001155853e-01</leafValues></_>
    <_>
      <internalNodes>
        0 -1 26787 7.3068350553512573e-02</internalNodes>
      <leafValues>
        -1.6732797026634216e-01 2.4586039781570435e-01</leafValues></_>
    <_>
      <internalNodes>
        0 -1 29175 3.0981000512838364e-02</internalNodes>
      <leafValues>
        -1.3678053021430969e-01 2.9052528738975525e-01</leafValues></_>
    <_>
      <internalNodes>
        0 -1 44182 2.9026266187429428e-02</internalNodes>
      <leafValues>
        -1.4574037492275238e-01 2.6196315884590149e-01</leafValues></_>
    <_>
      <internalNodes>
        0 -1 21256 9.0747103095054626e-03</internalNodes>
      <leafValues>
        1.2339428812265396e-01 -3.1879732012748718e-01</leafValues></_>
    <_>
      <internalNodes>
        0 -1 37712 1.6850786283612251e-02</internalNodes>
      <leafValues>
        1.1757612973451614e-01 -3.0594983696937561e-01</leafValues></_>
    <_>
      <internalNodes>
        0 -1 43953 9.5575414597988129e-03</internalNodes>
      <leafValues>
        1.7719607055187225e-01 -1.7084912955760956e-01</leafValues></_>
    <_>
      <internalNodes>
        0 -1 19781 1.1302607133984566e-02</internalNodes>
      <leafValues>
        -2.7682250738143921e-01 1.2563446164131165e-01</leafValues></_>
    <_>
      <internalNodes>
        0 -1 11757 4.2588748037815094e-02</internalNodes>
      <leafValues>
        8.9246623218059540e-02 -2.9816713929176331e-01</leafValues></_>
    <_>
      <internalNodes>
        0 -1 36633 1.6971532255411148e-02</internalNodes>
      <leafValues>
        -3.8370585441589355e-01 7.7749349176883698e-02</leafValues></_>
    <_>
      <internalNodes>
        0 -1 7101 1.1060778051614761e-03</internalNodes>
      <leafValues>
        2.4081742763519287e-01 -1.1533413827419281e-01</leafValues></_>
    <_>
      <internalNodes>
        0 -1 41437 9.4703817740082741e-03</internalNodes>
      <leafValues>
        -5.1445859670639038e-01 6.7345775663852692e-02</leafValues></_>
    <_>
      <internalNodes>
        0 -1 12807 9.1472063213586807e-03</internalNodes>
      <leafValues>
        1.0738959163427353e-01 -2.2509525716304779e-01</leafValues></_>
    <_>
      <internalNodes>
        0 -1 40543 4.6012913808226585e-03</internalNodes>
      <leafValues>
        -3.9351749420166016e-01 6.5442517399787903e-02</leafValues></_>
    <_>
      <internalNodes>
        0 -1 44873 5.2331887185573578e-02</internalNodes>
      <leafValues>
        4.2624738067388535e-02 -6.3866257667541504e-01</leafValues></_>
    <_>
      <internalNodes>
        0 -1 45149 6.3170842826366425e-02</internalNodes>
      <leafValues>
        2.6053326204419136e-02 -7.8475862741470337e-01</leafValues></_>
    <_>
      <internalNodes>
        0 -1 35863 2.5810290127992630e-02</internalNodes>
      <leafValues>
        5.0484217703342438e-02 -4.1906794905662537e-01</leafValues></_>
    <_>
      <internalNodes>
        0 -1 37164 9.8520323634147644e-02</internalNodes>
      <leafValues>
        4.3852824717760086e-02 -5.0941711664199829e-01</leafValues></_>
    <_>
      <internalNodes>
        0 -1 37150 1.5210809186100960e-02</internalNodes>
      <leafValues>
        9.5948494970798492e-02 -2.7146366238594055e-01</leafValues></_>
    <_>
      <internalNodes>
        0 -1 313 2.5805924087762833e-02</internalNodes>
      <leafValues>
        -1.1949940025806427e-01 2.3201553523540497e-01</leafValues></_>
    <_>
      <internalNodes>
        0 -1 25646 1.5883293002843857e-02</internalNodes>
      <leafValues>
        1.4745663106441498e-01 -1.7571552097797394e-01</leafValues></_>
    <_>
      <internalNodes>
        0 -1 45704 3.6411236971616745e-02</internalNodes>
      <leafValues>
        3.6280550062656403e-02 -5.8397603034973145e-01</leafValues></_>
    <_>
      <internalNodes>
        0 -1 29193 1.6850247979164124e-02</internalNodes>
      <leafValues>
        -1.8749752640724182e-01 1.1846322566270828e-01</leafValues></_>
    <_>
      <internalNodes>
        0 -1 15641 2.1002357825636864e-03</internalNodes>
      <leafValues>
        2.7588266134262085e-01 -8.5488758981227875e-02</leafValues></_>
    <_>
      <internalNodes>
        0 -1 41393 3.4284824505448341e-03</internalNodes>
      <leafValues>
        -6.7720013856887817e-01 3.2253310084342957e-02</leafValues></_>
    <_>
      <internalNodes>
        0 -1 45755 4.4731933623552322e-02</internalNodes>
      <leafValues>
        2.6302201673388481e-02 -6.7687523365020752e-01</leafValues></_>
    <_>
      <internalNodes>
        0 -1 23271 3.3779069781303406e-02</internalNodes>
      <leafValues>
        -6.7658349871635437e-02 3.3413115143775940e-01</leafValues></_>
    <_>
      <internalNodes>
        0 -1 19651 2.3098275065422058e-02</internalNodes>
      <leafValues>
        1.7823481559753418e-01 -1.2417156249284744e-01</leafValues></_>
    <_>
      <internalNodes>
        0 -1 4229 2.6348531246185303e-02</internalNodes>
      <leafValues>
        5.8918144553899765e-02 -3.8736024498939514e-01</leafValues></_>
    <_>
      <internalNodes>
        0 -1 24733 5.2661923691630363e-03</internalNodes>
      <leafValues>
        1.9306652247905731e-01 -1.2216155230998993e-01</leafValues></_>
    <_>
      <internalNodes>
        0 -1 45756 3.0964831821620464e-03</internalNodes>
      <leafValues>
        -5.7534611225128174e-01 3.8666132837533951e-02</leafValues></_>
    <_>
      <internalNodes>
        0 -1 8011 3.1160870566964149e-03</internalNodes>
      <leafValues>
        2.2489540278911591e-01 -9.4411604106426239e-02</leafValues></_>
    <_>
      <internalNodes>
        0 -1 37983 1.6164146363735199e-02</internalNodes>
      <leafValues>
        -4.6867397427558899e-01 4.2262077331542969e-02</leafValues></_>
    <_>
      <internalNodes>
        0 -1 11812 6.1741039156913757e-02</internalNodes>
      <leafValues>
        8.1926770508289337e-02 -2.5445139408111572e-01</leafValues></_>
    <_>
      <internalNodes>
        0 -1 29612 1.0110221803188324e-02</internalNodes>
      <leafValues>
        1.9108867645263672e-01 -1.1083965003490448e-01</leafValues></_>
    <_>
      <internalNodes>
        0 -1 41964 3.4174635075032711e-03</internalNodes>
      <leafValues>
        -5.8494925498962402e-01 3.4917224198579788e-02</leafValues></_>
    <_>
      <internalNodes>
        0 -1 12123 1.4876229688525200e-02</internalNodes>
      <leafValues>
        9.6540234982967377e-02 -2.5222834944725037e-01</leafValues></_>
    <_>
      <internalNodes>
        0 -1 32759 2.2843640297651291e-02</internalNodes>
      <leafValues>
        -8.3528883755207062e-02 2.6694294810295105e-01</leafValues></_>
    <_>
      <internalNodes>
        0 -1 45746 3.6868765950202942e-02</internalNodes>
      <leafValues>
        4.4688500463962555e-02 -5.5432802438735962e-01</leafValues></_>
    <_>
      <internalNodes>
        0 -1 36391 8.6109116673469543e-02</internalNodes>
      <leafValues>
        5.5262144654989243e-02 -3.6110681295394897e-01</leafValues></_>
    <_>
      <internalNodes>
        0 -1 39665 9.8422914743423462e-03</internalNodes>
      <leafValues>
        2.1924200654029846e-01 -8.8501870632171631e-02</leafValues></_>
    <_>
      <internalNodes>
        0 -1 44165 5.1571065559983253e-03</internalNodes>
      <leafValues>
        -6.6787934303283691e-01 3.2085210084915161e-02</leafValues></_>
    <_>
      <internalNodes>
        0 -1 12012 2.5824608281254768e-02</internalNodes>
      <leafValues>
        -8.7298348546028137e-02 2.2603358328342438e-01</leafValues></_>
    <_>
      <internalNodes>
        0 -1 38473 6.3087260350584984e-03</internalNodes>
      <leafValues>
        1.7464207112789154e-01 -1.1365956813097000e-01</leafValues></_>
    <_>
      <internalNodes>
        0 -1 30452 4.8768676817417145e-02</internalNodes>
      <leafValues>
        3.5719349980354309e-02 -5.0688332319259644e-01</leafValues></_>
    <_>
      <internalNodes>
        0 -1 11772 4.9861475825309753e-02</internalNodes>
      <leafValues>
        -4.7334708273410797e-02 4.1291189193725586e-01</leafValues></_>
    <_>
      <internalNodes>
        0 -1 45258 8.0676833167672157e-03</internalNodes>
      <leafValues>
        -3.8798844814300537e-01 4.9434278160333633e-02</leafValues></_></weakClassifiers></stage17>
</opencv_storage>
